0.003744 0.002511 0.021751 -0.006826 0.007342 -0.009969 -0.041231 0.005070 -0.017024 0.009225 0.001423 0.018879 -0.027910 0.010408 0.027365 -0.023723 0.008151 -0.036216 0.008815 -0.003841 0.001895 0.003174 0.008545 0.004675 0.022613 -0.008895 0.018666 -0.009156 -0.027167 -0.024475 -0.011027 0.003717 0.000163 0.022367 -0.021353 0.019301 -0.036423 0.009012 -0.003697 -0.005415 -0.000134 -0.034649 0.009309 -0.009711 0.060768 0.001929 -0.011530 0.003384 -0.026106 0.004553 0.005471 -0.005726 0.001525 0.006652 -0.005315 0.000777 -0.005083 0.050449 0.002789 0.027242 0.000993 -0.034899 0.000033 -0.024367 0.017467 -0.008647 0.031453 0.034217 0.027846 0.039657 0.020493 0.022447 0.005609 0.053604 0.025305 0.005054 -0.007681 -0.009229 0.020475 0.048347 -0.007772 0.047380 -0.000745 0.013654 0.025576 0.002261 0.022647 0.027595 0.006075 -0.014726 0.036422 0.032894 -0.001352 0.002097 -0.006117 -0.002527 -0.000509 0.028010 0.009157 0.003147 0.016804 -0.008776 0.009028 -0.026499 0.069705 -0.003838 0.026637 0.014799 0.007415 -0.002922 -0.007610 -0.019892 -0.058743 0.011554 -0.017857 0.005851 0.004457 -0.003760 -0.007474 -0.003548 0.007443 0.014096 0.003130 -0.005272 -0.008453 0.001631 0.016767 0.012944 -0.009327 -0.011680 0.025053 -0.008713 -0.019386 -0.006712 -0.006985 -0.006134 0.013596 -0.017197 0.000870 -0.007394 -0.016444 0.021765 0.003487 0.025002 0.002949 0.004240 -0.005238 -0.009274 -0.003728 0.013048 0.029375 0.000866 0.006518 0.008027 -0.025933 0.005833 -0.002577 0.003433 -0.019143 0.008848 0.000493 0.006630 0.028597 -0.010482 0.004793 0.006733 0.007148 0.028303 0.009958 0.017999 -0.004179 0.026596 0.000759 0.010093 0.010046 -0.007102 -0.008648 -0.012614 0.002533 0.002133 0.016005 0.033439 0.010199 0.002075 0.009028 -0.001312 0.001506 0.005811 -0.012898 -0.004646 -0.013496 0.013045 -0.026321 -0.000658 0.008631 0.037751 0.042174 0.002412 0.012279 0.011306 0.017404 -0.000326 0.010875 0.004244 0.009995 -0.017279 0.011301 -0.019683 -0.012213 -0.006779 -0.009705 -0.012087 -0.002290 0.004779 0.002999 -0.002867 0.017612 -0.004011 -0.011540 0.000405 0.017529 0.026771 0.009481 0.007029 0.022599 -0.021008 0.020281 -0.014241 -0.001381 0.008213 0.025876 0.006704 0.008042 0.016647 0.008459 -0.007915 -0.008483 -0.002423 -0.001587 0.032361 0.004833 0.002352 -0.007434 -0.004511 0.001652 -0.009646 -0.002056 0.006519 -0.029085 0.002188 -0.008293 0.025710 -0.000609 0.008333 -0.043616 0.016026 0.015097 -0.007499 -0.007234 0.002340 0.000122 0.000195 0.013158 0.017675 0.016225 0.001498 0.030608 0.001336 0.015318 -0.016957 -0.024321 -0.010605 -0.000820 -0.000529 0.003087 -0.007634 -0.008810 -0.011399 -0.013799 -0.016980 -0.003348 0.004993 -0.011113 -0.006124 0.010350 -0.007251 0.044554 0.005856 0.000672 -0.000576 -0.025326 -0.000255 0.012073 -0.003495 0.009354 -0.005827 0.010629 0.001854 -0.018457 0.044976 0.004568 0.004710 0.017293 0.007910 0.006774 0.014358 0.002576 -0.011844 0.001665 -0.005715 -0.001663 -0.010573 0.031233 0.006232 -0.016928 0.012270 0.018736 0.020466 0.001750 -0.001601 0.035860 0.031452 0.005190 0.010827 -0.008620 0.033182 0.026878 0.004198 -0.005379 0.009459 -0.019214 -0.010876 0.020244 -0.022198 -0.002897 0.017102 -0.000364 0.026106 -0.002761 0.010444 0.001787 0.033262 0.057812 -0.005998 0.015137 -0.009286 0.026830 0.001213 0.011200 0.016495 0.022122 0.028743 -0.009646 -0.011223 -0.042661 -0.003240 -0.009270 -0.010191 -0.004547 -0.003845 0.032663 0.001203 0.002073 -0.016523 -0.028543 -0.028749 -0.004296 -0.002630 -0.012962 -0.012817 -0.006933 0.024965 0.017946 0.002716 0.002147 -0.007880 0.018354 0.019413 -0.014518 -0.024242 0.000210 -0.006405 0.022076 -0.000043 -0.010834 0.011064 0.016334 0.015291 -0.001837 0.021158 -0.000142 -0.020098 0.017383 0.005364 0.014489 -0.007440 -0.015934 -0.017396 -0.004422 0.017364 0.008861 -0.002664 0.004621 0.002431 -0.016175 -0.000169 0.004941 0.049190 0.031686 0.009741 0.018448 -0.004293 0.005660 0.031491 -0.004684 0.002211 0.013707 0.010985 0.005844 -0.013525 0.066386 -0.012632 -0.009727 0.025869 0.028278 -0.001619 0.011799 0.004819 -0.016951 -0.003396 0.014135 -0.000895 -0.008626 0.011742 0.048550 -0.012631 0.008192 -0.026020 0.024923 -0.000882 -0.002439 0.031785 0.038330 -0.010353 -0.012898 -0.025146 0.039019 0.021790 -0.006191 -0.023345 -0.008485 -0.028930 -0.017086 0.052775 -0.029032 0.004497 0.034116 -0.001133 0.007108 0.004983 0.019832 0.004656 0.031572 0.042054 -0.011203 0.017814 -0.007810 -0.006221 -0.029287 0.015046 0.007014 -0.000718 0.003687 -0.010593 -0.009868 -0.030609 -0.003426 -0.016073 0.022386 0.003124 0.000547 0.029157 0.003255 -0.003853 0.003580 -0.009578 0.023710 0.026886 0.025186 0.004578 -0.002927 0.010968 0.029310 -0.010610 0.010128 0.014791 0.001316 -0.002592 0.004404 0.001968 0.026624 0.019113 -0.004024 -0.000152 -0.022088 0.021311 -0.013488 -0.027109 0.020218 -0.003958 0.008744 0.028860 -0.042127 0.007977 -0.005776 0.001249 0.005916 0.015491 0.000259 -0.016664 0.004635 0.006503 0.017306 0.000122 0.002097 0.004495 -0.001859 -0.008816 0.012788 0.030445 0.005302 0.009471 0.007687 -0.009329 -0.029637 -0.003382 0.002722 -0.018878 0.009803 -0.003434 -0.009331 0.002340 0.007386 -0.003486 -0.003385 0.000792 0.001067 0.006916 0.001932 0.003057 0.003112 -0.015897 0.016407 -0.012175 0.026921 -0.001178 0.014400 -0.014385 0.015026 -0.020179 -0.001730 -0.000448 0.030366 -0.000966 -0.001638 0.009299 0.008294 0.001449 0.013280 0.001271 0.024100 0.013321 -0.010653 0.011318 0.003275 -0.010943 -0.008534 -0.014126 0.003074 0.024656 -0.003891 0.000579 0.005040 0.016355 0.012549 0.005822 0.005948 -0.002897 -0.020004 0.041921 -0.005088 0.012490 -0.004254 0.006899 0.004704 -0.011661 -0.005257 0.009487 0.018103 -0.029287 -0.006290 -0.003216 -0.011594 0.008296 0.003929 -0.033545 0.034396 0.004940 0.009265 -0.005437 0.010649 0.017595 -0.018786 0.005294 -0.006709 0.003976 0.027462 -0.012434 0.013529 -0.016389 -0.017180 0.003845 0.039142 -0.011703 0.052452 -0.005333 0.028681 -0.003808 -0.017827 0.013501 -0.001668 0.045959 -0.018108 -0.017895 -0.002481 0.007342 0.001273 -0.007487 0.015408 0.002837 -0.013517 0.004578 0.022996 0.000453 -0.004788 -0.010168 -0.029412 0.002936 -0.007041 -0.007719 0.022460 0.012217 -0.006261 0.027018 -0.001196 0.025834 0.002277 0.003571 0.016357 0.040969 -0.004821 0.032660 0.027970 0.009700 -0.011858 0.022176 0.040468 0.005872 0.030670 -0.003238 -0.020959 0.012394 -0.006400 -0.009436 -0.018060 0.013315 0.016339 -0.000465 -0.017874 -0.052422 0.003404 -0.001728 -0.004856 0.020410 0.012633 0.002410 -0.021537 -0.014217 0.022765 0.040039 -0.005723 0.008530 0.000598 -0.007186 0.002854 0.050331 -0.056135 0.006419 0.032255 -0.001117 0.019827 -0.008078 -0.003515 0.001437 0.056098 0.062031 0.006913 -0.007102 -0.007103 -0.009091 -0.023220 0.031846 0.013661 -0.012516 -0.022897 -0.009289 -0.026833 0.011892 -0.003928 0.004493 -0.024941 0.010254 -0.002024 0.023041 0.034063 -0.004966 -0.011956 0.034414 0.009829 -0.021641 -0.019509 0.010078 0.023926 -0.009981 -0.022078 -0.017152 0.008561 0.014319 0.002152 0.014521 -0.042512 -0.000828 -0.002221 0.026403 -0.002049 0.016101 0.009912 0.009963 0.011751 -0.011594 -0.024757 -0.003603 0.018411 -0.003090 0.029206 -0.013227 0.012102 -0.004550 0.009998 0.038857 0.015635 -0.000631 -0.006923 0.021020 -0.007103 -0.008387 -0.003736 -0.008608 -0.003362 0.002501 -0.043893 -0.033071 -0.006479 -0.030869 0.013407 0.002840 0.018870 0.018590 0.001528 -0.000364 0.005797 0.005143 0.034793 -0.009366 -0.006163 -0.024448 0.017876 0.028038 0.001214 0.019737 -0.005858 0.001660 -0.006489 0.010530 -0.023794 0.001394 -0.031049 -0.013715 0.001257 0.002339 -0.029436 -0.003866 -0.004387 -0.002401 -0.038782 -0.010491 0.004235 -0.022568 0.034273 -0.015867 0.016725 -0.003549 -0.000576 0.026735 0.024148 0.006564 0.019776 -0.014491 -0.004141 0.006974 -0.007474 0.007182 0.002274 -0.020317 -0.006430 -0.011401 -0.014255 0.009460 -0.007494 -0.000465 0.002417 -0.009344 0.019625 -0.002746 -0.020923 -0.027097 0.003902 0.002628 0.044621 0.003199 0.028763 0.029223 -0.007717 0.003141 -0.004885 0.002988 0.001661 -0.006133 0.001294 -0.017032 0.002637 0.000508 0.005814 0.007785 -0.003448 0.011230 -0.000665 -0.001443 -0.007418 0.008215 0.014936 -0.006176 -0.013370 -0.022822 -0.001343 -0.006345 0.000357 0.006513 -0.018129 -0.010287 0.012151 0.010319 -0.002244 0.007494 0.010222 0.003214 0.023585 -0.001550 0.000415 0.005825 -0.004104 0.001367 -0.002520 0.012003 0.020126 -0.009851 -0.003615 -0.001230 0.005687 -0.009039 -0.000004 0.014279 0.008370 0.016272 0.012791 -0.002188 0.011249 0.029452 -0.005344 -0.000016 0.017179 0.022522 0.005067 0.010565 0.018565 -0.001456 0.000489 0.014915 0.012986 0.000027 0.006506 0.006817 -0.005806 0.006574 0.008077 -0.006919 0.000382 -0.001279 0.024489 -0.000047 -0.006943 -0.020938 0.002451 -0.003514 -0.002708 0.018697 0.016020 -0.003948 -0.007854 -0.022426 0.012547 -0.002828 -0.007962 -0.017643 -0.005467 -0.006565 -0.001624 0.022320 -0.011940 0.005909 0.024888 -0.006259 0.002259 0.007999 0.011474 0.000899 -0.006522 0.014200 -0.003767 -0.003113 -0.002247 -0.000128 -0.024627 0.001431 -0.004978 -0.012501 -0.003171 -0.010041 0.000617 -0.008227 0.009357 -0.007185 0.028328 0.010390 0.005804 0.003633 -0.003042 0.010390 0.007742 -0.001846 0.009502 0.005679 0.008705 -0.011251 0.008694 0.005798 0.003515 -0.006497 -0.000490 0.001489 0.002011 0.006689 0.005659 0.010488 0.003369 0.001345 0.007655 0.003100 0.011234 -0.001121 0.008063 0.002523 -0.004748 0.007152 0.001420 0.003599 0.000059 0.012404 0.002153 0.007335 0.005637 0.005289 0.005913 0.010687 0.009676 -0.009967 0.007201 -0.002773 -0.001212 -0.004720 0.002745 0.002587 0.004086 -0.007748 0.003526 0.000862 0.011735 0.004925 0.001588 -0.002264 0.006214 -0.000778 0.000043 0.004858 -0.002231 0.000838 0.000207 0.005388 0.001688 -0.002255 0.003472 0.002316 0.002898 -0.000273 -0.003162 -0.009815 0.015303 0.002516 -0.000867 0.002711 -0.005363 -0.000147 -0.002128 -0.000246 0.001667 -0.000098 -0.005128 -0.004031 -0.001432 -0.008016 -0.004703 0.003993 -0.005142 0.003317 0.004055 -0.003032 0.000509 0.004535 -0.010092 0.011224 -0.001193 0.003544 0.002261 -0.005934 0.004134 0.005488 0.000675 0.003883 -0.001686 0.000941 -0.000169 -0.002858 0.009699 0.003961 -0.003810 0.004987 0.005828 0.004558 0.004799 -0.000148 0.019766 0.007001 0.016240 0.006235 0.005994 0.003128 -0.005964 0.004121 0.000428 -0.010123 0.032903 0.009533 -0.007019 0.005896 0.010109 0.043092 -0.014805 0.002788 0.014596 0.000499 0.025218 0.008662 0.007405 -0.020052 0.003556 -0.017082 0.050703 -0.003707 0.054942 0.028842 0.020472 0.028940 0.009647 -0.005646 0.002182 0.021287 -0.007357 0.023581 0.015084 0.000305 -0.005042 0.010345 0.022244 0.012543 0.001061 0.020908 0.016023 -0.012808 0.002537 0.001097 -0.013130 -0.005095 0.005303 -0.019252 -0.025169 0.006495 -0.001081 0.052095 0.003424 0.032872 0.004588 -0.003468 -0.003294 0.011399 0.006366 0.014787 0.001005 0.000307 -0.020922 0.028239 0.047712 0.007340 0.027530 -0.005687 -0.004559 -0.006484 -0.007981 -0.020165 -0.006392 0.013996 0.002570 0.001631 0.001463 -0.015323 0.025037 -0.003426 0.007421 0.013575 0.003587 0.002556 -0.037569 0.003505 0.028038 0.016060 -0.006764 -0.011483 0.010405 -0.001618 0.011253 0.006088 -0.029455 0.000709 0.013101 -0.005421 0.008967 -0.003568 -0.003605 0.001155 0.041387 0.029240 0.002915 -0.006234 0.016129 0.001737 -0.010083 0.027036 0.029887 -0.002408 0.004457 -0.001056 -0.004240 0.032828 -0.006185 0.017883 0.023248 0.001909 0.006781 0.019269 0.022849 -0.002418 -0.003259 0.016046 0.010126 0.013292 0.013663 0.019533 0.007565 -0.012816 0.012323 -0.003085 -0.005457 -0.001303 0.020557 -0.010241 0.002705 0.016832 0.007536 0.005631 0.004646 0.017292 -0.026572 0.004011 -0.021174 -0.013560 0.028305 0.008301 0.035004 -0.000426 -0.021440 -0.006041 0.002315 0.005583 -0.010747 -0.018749 0.015690 0.001197 0.022460 0.033751 0.001043 0.002854 0.004369 0.014340 0.005238 0.013125 -0.020416 0.022071 0.029169 -0.008975 0.009253 -0.007122 -0.008150 -0.020333 -0.006863 0.005151 0.025999 -0.001404 0.012509 -0.006763 -0.005402 0.016087 -0.001989 0.001772 -0.002772 0.005647 0.004395 0.009923 0.003827 -0.004521 0.001980 -0.002119 0.015873 0.023249 -0.010395 -0.023204 -0.040006 -0.005445 -0.018684 0.005880 0.002876 -0.001501 -0.001117 -0.011937 -0.032933 -0.005133 -0.000704 -0.005599 0.030740 -0.013476 0.005763 -0.005032 -0.017147 -0.009220 0.003734 0.014586 0.007345 0.041386 0.014901 0.011630 -0.001279 -0.000341 0.044469 0.014816 -0.008748 0.000576 -0.009764 -0.003191 -0.020885 0.003962 0.010580 0.008949 -0.013220 -0.013361 0.029923 -0.003188 -0.024799 -0.022474 0.031143 0.002084 0.018238 0.010516 0.008294 0.005928 -0.007368 -0.003538 0.014425 0.009902 0.005710 0.002194 0.003071 0.000547 0.008325 0.006544 0.011703 0.001122 -0.003091 0.000624 0.000156 0.000175 0.003811 0.008836 0.001701 0.004948 0.004721 0.004286 0.003705 -0.005686 -0.002696 0.000974 -0.002893 -0.000473 0.013822 -0.003449 0.005100 0.008286 0.007985 -0.001024 -0.010696 -0.006169 0.001152 -0.000301 -0.008523 -0.003413 -0.007931 0.006632 0.001070 -0.005493 -0.002586 -0.004417 0.000918 0.004016 0.000374 -0.003041 -0.004037 0.000684 -0.000809 -0.001469 0.002721 0.002764 0.011844 -0.001634 0.001458 0.000151 0.002501 -0.001458 -0.001290 -0.006631 -0.004835 0.005495 -0.002003 -0.009873 -0.001927 0.007226 -0.002712 0.005639 -0.003343 0.004928 -0.009530 0.002462 0.000193 0.008972 -0.003009 0.008180 0.010714 0.005725 -0.004873 0.007275 0.002109 0.004518 0.004934 0.005021 0.008866 0.004518 -0.009694 -0.001308 0.002543 -0.004839 -0.007201 -0.000943 0.000790 -0.000318 0.009542 0.006029 -0.009912 0.001252 0.004775 0.004658 0.016580 0.004465 0.002768 -0.001498 -0.003210 0.003864 0.005387 0.000750 0.001798 0.008799 0.001582 -0.003305 0.002154 0.001040 0.005974 -0.000893 -0.004077 0.000558 -0.002742 -0.015658 0.004153 -0.005451 0.008152 -0.003119 -0.005139 0.001610 0.002612 -0.004037 0.009080 0.002530 0.021787 -0.011292 0.002097 -0.006913 0.002420 -0.004091 -0.004202 -0.013643 -0.009586 -0.004156 -0.000003 -0.001360 -0.016700 -0.001094 0.001259 0.019126 -0.002360 0.006035 0.000231 -0.007819 -0.008905 0.000708 -0.028398 0.013956 -0.001237 -0.007309 0.004799 0.001247 0.003063 -0.003332 0.013665 0.028261 0.029694 0.008989 -0.012986 0.012293 0.004015 0.004657 0.002801 0.027441 -0.014671 0.014315 0.026811 -0.002223 -0.012185 0.025978 0.005071 -0.024132 0.000002 -0.009637 -0.006466 -0.002227 0.013812 0.014708 0.010310 0.018188 -0.014751 -0.011881 0.007005 0.014438 0.009008 -0.002402 0.009288 -0.004575 -0.005086 0.007894 -0.000049 0.019386 -0.001279 -0.014907 0.002882 -0.003771 0.010106 -0.008352 -0.003085 -0.005774 0.025076 0.000309 -0.002352 0.010560 0.002027 -0.014731 0.007247 0.004245 -0.004585 0.006130 0.010723 -0.001171 0.005397 0.020271 -0.000050 -0.016695 -0.004273 0.008042 0.000154 -0.007967 0.004375 0.002978 -0.011046 -0.001471 0.003675 -0.003836 0.026081 -0.008974 0.013857 -0.002877 -0.001037 -0.002372 0.000987 -0.000131 0.006780 0.004207 0.001640 -0.001629 0.000011 0.012890 0.006998 0.002806 -0.009061 0.005482 -0.004006 0.007632 0.006000 -0.004469 0.001296 0.003147 -0.004448 0.006069 -0.004734 0.003753 0.006252 -0.000603 -0.002823 -0.005286 0.004315 0.009482 0.003777 0.001925 0.003153 0.000352 -0.008001 0.009445 -0.004298 0.007044 -0.005886 -0.004478 0.002464 -0.001396 -0.001494 0.002520 -0.003156 0.000752 -0.003575 -0.001035 0.000485 -0.005828 0.004399 -0.002591 0.003111 0.007650 -0.004913 0.000441 -0.001007 -0.004867 -0.000472 -0.008975 0.005486 0.001425 -0.005774 -0.003441 0.005250 -0.006955 0.000583 0.008432 -0.005267 -0.004447 -0.001490 0.004765 -0.002991 -0.000118 0.004266 0.008206 0.003525 -0.000138 0.002781 -0.003271 -0.004277 -0.005607 -0.000664 -0.001963 -0.002497 -0.002385 0.001764 -0.000491 0.003909 0.001661 -0.002210 -0.001314 0.004108 -0.000668 0.004613 0.003073 -0.004704 0.006631 0.011564 -0.001000 0.001696 0.004906 0.002393 0.009140 0.007809 0.002947 0.008250 0.000251 -0.009374 -0.002270 0.006750 -0.010598 0.007937 -0.005247 -0.008396 0.004226 0.006112 -0.000277 -0.002563 0.004740 0.008441 -0.002454 -0.001807 0.004333 -0.003017 0.004731 0.009311 -0.003074 0.009436 -0.001585 -0.006160 0.004412 -0.001190 -0.001171 -0.007648 -0.001180 0.002511 0.006559 -0.005046 0.003170 0.013036 0.003691 -0.001845 -0.005550 0.002234 0.000808 -0.003055 -0.002090 0.003016 -0.003613 0.010979 -0.015965 -0.000955 -0.010777 -0.000489 -0.011625 0.009242 0.007600 -0.010218 0.006017 -0.010033 -0.006403 0.005878 -0.002150 -0.002457 -0.011369 -0.000926 -0.008439 0.010709 0.002393 0.000971 0.002217 -0.001417 0.003228 -0.003766 0.002365 0.000420 0.000270 0.000831 -0.010524 0.001585 0.012353 -0.003617 -0.009704 -0.012106 -0.004382 -0.001494 0.001239 0.006753 0.005152 0.006484 0.011070 -0.001706 -0.001220 0.001743 -0.001284 0.003808 -0.000715 0.009228 0.010879 -0.010609 0.011567 0.009393 0.000291 -0.002799 0.010879 0.007288 0.007208 0.008615 0.000818 0.005764 -0.002181 0.001302 0.006404 -0.008112 -0.001937 0.002925 0.001475 0.005159 0.000102 -0.004914 -0.008329 -0.000749 0.002488 -0.004723 -0.000133 0.005709 -0.002964 -0.002235 -0.000089 0.007208 0.006153 -0.000226 0.006248 0.000373 0.007179 0.001058 0.019768 0.004431 0.007960 -0.001732 0.004929 0.002468 -0.004053 -0.003445 0.007894 -0.008839 0.009113 0.008349 -0.001462 -0.002545 0.002607 0.001678 0.002502 -0.007832 -0.000206 -0.001805 -0.006730 -0.005089 0.001590 0.000109 -0.002305 -0.000315 -0.007815 0.002844 0.002190 0.004540 -0.005472 0.005686 -0.005247 -0.009493 -0.012030 -0.000940 -0.006625 -0.002992 -0.003488 -0.003374 0.001363 0.008498 -0.002025 0.003510 0.008441 -0.006586 0.008849 0.001422 -0.004624 -0.002030 0.005560 0.001129 0.005653 -0.006802 0.003111 -0.000713 0.002234 0.006636 -0.004219 0.005751 0.011862 -0.001692 0.004351 -0.000426 -0.003192 -0.001547 -0.009017 0.002645 0.004151 -0.000690 0.008869 -0.001020 -0.006646 0.004428 -0.001434 0.000095 -0.007344 0.000613 0.000480 0.007914 -0.000102 -0.004335 0.002656 -0.004193 -0.004381 0.005537 0.007653 -0.002445 0.002145 0.001725 -0.000057 -0.007100 -0.007773 0.003453 0.006258 0.002146 -0.001718 0.002834 0.004713 -0.002750 -0.001166 -0.000884 -0.000535 0.004993 0.003769 -0.000163 -0.007681 0.001768 -0.004690 0.011875 -0.012095 -0.001174 -0.001338 0.000585 -0.003143 0.000873 -0.007800 -0.003455 0.008314 0.005058 -0.003145 -0.002116 0.001903 -0.002206 -0.002909 0.007247 -0.001461 0.002682 0.014682 0.052306 -0.006783 0.046350 -0.008462 0.013383 0.018108 0.041688 0.009531 -0.010178 0.016744 -0.032830 -0.044058 0.031819 0.030831 0.053862 0.009646 0.009677 0.017989 0.008882 0.037007 -0.029984 -0.029149 0.042991 -0.002061 0.051729 -0.023913 -0.001717 -0.008839 0.005070 -0.005669 -0.007786 -0.006610 -0.000302 0.018211 0.007892 -0.033959 0.042020 0.006053 0.014701 0.000009 0.006326 -0.005712 0.035061 0.032604 0.027177 -0.011133 0.055144 -0.022122 -0.059672 -0.017890 0.001212 -0.033478 -0.018577 -0.001742 -0.017224 -0.026287 0.008780 0.032991 -0.003782 -0.045097 0.008217 -0.011381 0.016156 0.020850 0.001295 -0.004747 0.064587 0.029415 0.059104 -0.026512 -0.000616 -0.002951 0.066940 -0.002216 -0.003301 0.004956 -0.008768 0.023965 0.004763 0.018984 0.001679 0.004045 0.011829 0.010779 0.054035 0.017157 -0.054375 0.000767 -0.035106 0.017736 -0.000865 -0.037187 -0.001807 0.034110 -0.005711 0.005413 0.003856 0.055650 0.044202 0.003262 0.001719 0.012751 0.000651 0.047828 -0.001923 0.058047 0.057719 0.067275 0.018547 -0.000893 0.015564 0.000860 -0.025904 -0.088922 0.039387 -0.001642 0.021054 0.042304 -0.002432 0.011629 -0.022972 -0.002331 0.025732 0.008340 0.010939 -0.011565 0.008826 0.050846 0.015022 -0.008639 -0.006052 -0.010462 0.013211 0.004283 -0.010465 -0.004813 0.020752 0.009844 0.024566 -0.011178 0.009059 -0.007908 0.009299 0.024532 0.000149 0.037837 0.011221 -0.046366 -0.006857 -0.015732 -0.004974 0.002520 0.004186 0.002930 -0.008497 0.031589 0.002229 0.010316 -0.000288 -0.010547 -0.010767 -0.006893 0.004222 0.024544 0.017466 0.004252 0.011328 0.000381 -0.004649 0.016829 -0.010795 0.000918 -0.024846 0.030029 0.001576 -0.008258 0.021921 0.003623 -0.035066 0.017801 0.046508 0.006910 0.040494 0.007287 -0.012469 -0.004938 -0.006554 -0.007065 -0.032609 0.023178 0.043931 -0.010166 -0.023243 -0.042457 0.012897 -0.002275 0.001283 0.046958 0.007572 -0.003424 -0.018043 -0.016603 0.023998 0.008764 -0.007937 -0.014804 0.005167 -0.013930 -0.004188 0.015439 -0.038884 -0.005186 0.013295 0.000335 0.048942 0.001629 0.010059 -0.007345 0.001960 0.043894 -0.005709 0.008474 -0.019284 -0.005200 -0.005262 -0.002376 -0.010879 -0.005748 -0.000464 -0.009083 -0.016339 0.000157 0.004674 -0.022935 -0.009860 -0.013992 0.008273 0.005258 0.009456 0.002184 -0.011037 0.005356 -0.016702 0.003960 -0.012195 0.000426 -0.011813 -0.010030 -0.020596 0.029963 -0.005085 0.000785 -0.021276 0.028058 -0.002137 -0.015607 -0.017112 -0.002680 -0.005683 0.003505 0.009199 0.004659 0.011348 0.033806 0.007109 -0.003224 0.028071 -0.012154 -0.002350 -0.006153 -0.000869 0.000332 -0.006006 0.001256 0.002714 0.001449 0.010313 -0.001903 -0.008438 0.002636 0.010502 -0.003081 -0.000483 0.005713 0.018605 -0.004756 -0.019609 0.008090 -0.011334 0.009646 0.049338 -0.004237 -0.000587 0.015628 0.027913 -0.007386 -0.006630 0.036167 -0.000673 -0.010056 0.010543 0.032686 0.007721 0.009761 0.005089 -0.012360 -0.004903 0.023090 -0.019705 0.007940 0.021401 0.023176 -0.012304 0.005528 -0.021935 0.026379 -0.009294 0.003828 0.024571 0.027371 0.005750 -0.016143 -0.023305 0.026132 0.022888 -0.000332 -0.024604 -0.003830 0.007986 -0.012838 0.022666 -0.007543 -0.002632 0.022489 -0.004369 0.009873 -0.004217 0.016516 -0.002306 0.003668 0.021215 -0.001161 0.005006 -0.005350 0.024611 -0.033142 0.022086 -0.001843 0.000767 0.010268 -0.016012 -0.006370 -0.017186 0.002392 -0.023224 0.042685 -0.004884 -0.004384 0.016812 -0.015297 0.004959 0.022161 -0.013495 0.013092 0.018495 0.001690 0.001253 -0.015419 0.016334 0.033950 0.011519 -0.008143 -0.003167 0.017950 0.011049 0.009615 0.005716 -0.000777 0.005591 0.001150 0.005209 -0.005927 0.008979 -0.002567 0.014481 0.018028 -0.002559 0.026715 0.030086 -0.009326 -0.006234 -0.005105 -0.001221 0.011985 0.015579 -0.000514 -0.002162 0.038396 -0.003199 0.015736 0.005027 -0.006076 0.011961 0.006025 0.003800 0.003663 -0.012116 -0.000339 0.016718 0.005893 0.004207 0.009354 -0.002065 -0.000074 -0.027922 0.011819 0.000994 -0.015593 -0.000248 0.010421 -0.022922 -0.001108 0.016480 0.007883 0.018189 0.016481 -0.001526 -0.011533 -0.002605 0.001682 -0.012624 0.006979 0.019192 -0.001199 -0.002237 -0.008835 -0.004466 0.001614 -0.002791 0.027293 -0.008586 -0.004429 -0.004599 -0.004566 0.000767 -0.007722 -0.009001 0.005242 0.010251 0.004226 0.023089 -0.011646 -0.003095 -0.008966 -0.004140 0.000782 0.023205 -0.002835 0.012271 0.000807 -0.010527 -0.003736 -0.002759 -0.001984 -0.000714 -0.001589 0.024238 0.006613 -0.003259 -0.004191 0.010050 -0.003899 0.005611 0.017258 -0.000965 -0.004875 0.010038 -0.011774 -0.003158 -0.016786 -0.003022 0.004726 0.022019 0.010331 0.033506 0.028841 0.010981 0.007757 0.003562 0.014252 0.004581 0.003489 -0.017647 -0.003190 0.008215 -0.022502 -0.000331 0.028289 0.035725 -0.004315 0.011382 -0.011446 -0.007999 0.021970 -0.014364 -0.010644 0.030575 0.003232 0.033534 0.010247 -0.009784 -0.026725 0.003494 -0.002518 0.013819 -0.007817 0.017996 0.002030 -0.004866 -0.004449 0.003116 0.005974 0.013636 0.030873 -0.003537 0.007031 -0.009531 0.003813 0.024757 0.010253 -0.005395 -0.007589 -0.022717 -0.020813 0.004019 -0.032563 0.014550 0.006514 -0.000870 -0.028151 0.013019 0.016856 -0.001766 -0.012034 0.009388 0.013787 0.006337 -0.001729 -0.001517 -0.006847 0.012881 0.014125 0.036673 0.007930 -0.005053 0.001368 0.042125 -0.006459 0.006912 0.007101 0.000609 -0.011706 -0.001977 0.003572 -0.007953 0.001192 0.007358 0.012113 0.027616 0.033587 0.015436 -0.004642 -0.042595 0.027826 0.003562 -0.005709 0.000178 0.067508 0.003113 0.005871 0.000213 -0.008596 -0.001725 -0.004584 -0.004911 -0.005028 0.010794 0.033894 -0.016684 -0.000468 0.033029 0.038641 -0.000300 -0.006776 0.054044 0.004495 -0.020809 -0.012555 -0.000309 0.003195 -0.005703 0.012393 0.005276 -0.004973 0.010194 0.001248 -0.002310 -0.000582 -0.003001 -0.001825 0.008862 -0.005404 0.003436 -0.004835 0.002729 0.007064 -0.008481 -0.004613 0.003900 -0.005513 -0.000929 -0.000096 -0.005120 0.002602 0.004978 -0.001352 0.006791 0.000781 -0.002081 -0.000447 0.006817 -0.001524 -0.003562 0.007495 -0.000520 -0.001287 0.002135 -0.005914 0.005695 -0.007351 -0.008329 -0.003134 -0.011504 0.000461 -0.006484 -0.003268 -0.000865 -0.000113 -0.002100 0.011462 0.000307 0.000274 -0.003080 -0.005195 0.004058 0.002643 0.006825 -0.002594 -0.004788 0.010244 0.000344 -0.002903 0.004925 0.003462 0.009286 0.000282 -0.004693 -0.005520 0.000695 -0.007355 -0.002220 -0.005294 -0.005181 0.000535 -0.016630 0.005769 -0.005920 -0.003048 0.005492 -0.001237 -0.004985 0.000455 -0.003095 0.007033 0.009032 0.007616 0.004881 -0.005304 -0.004878 -0.004908 0.004422 -0.004285 -0.003442 0.000768 0.004577 0.000329 -0.003975 -0.005814 0.003031 0.006484 -0.003286 0.004131 0.000152 0.002978 -0.011960 0.010430 -0.006268 0.004700 -0.006735 0.007810 -0.000756 -0.000850 0.002361 0.006806 0.006867 0.007268 0.000973 0.009340 -0.000611 -0.005182 -0.005424 -0.001098 -0.003120 -0.006836 -0.007542 0.002126 -0.009717 -0.001283 -0.002114 -0.004119 0.002119 0.000565 0.006277 0.001606 0.008851 0.001137 0.003400 0.001701 0.003946 0.013393 0.003213 -0.008692 0.001399 0.005628 -0.004635 0.003467 -0.001091 -0.003637 0.003469 0.005264 -0.000394 -0.003636 -0.003792 -0.001599 -0.000348 -0.005516 0.003031 -0.008270 0.000436 0.003647 0.006082 0.000335 -0.003057 0.000023 0.000596 -0.002570 0.006186 0.011085 0.002058 0.004536 -0.001855 0.007242 0.004012 0.001381 0.004032 -0.002272 0.005998 0.004190 0.007028 0.002577 -0.008084 -0.004387 -0.000126 0.009701 -0.000094 -0.006481 -0.008126 -0.005547 0.001174 0.001880 0.005433 -0.001624 0.003184 -0.000822 0.008801 0.002330 0.005937 -0.001524 -0.008802 0.001922 0.006414 0.006429 0.005398 -0.005524 0.010419 -0.003678 0.002253 -0.002522 -0.006212 -0.002174 0.004279 -0.000778 0.004874 0.000137 -0.006027 0.008721 0.014960 0.001807 0.002698 0.004000 0.001146 -0.003641 0.006728 0.002711 0.013602 0.002015 0.005632 0.000541 0.007365 0.008890 -0.004074 -0.000178 0.001075 -0.000832 0.007769 -0.003084 -0.002462 0.007834 -0.005984 -0.005527 -0.004764 -0.002346 0.006293 -0.001098 0.002852 0.013953 0.007446 0.006132 0.033711 0.005751 0.010353 0.000909 0.007722 0.029260 0.023069 -0.006940 0.008738 -0.007419 0.020546 -0.022961 -0.005926 -0.012184 0.019955 0.003084 0.015646 0.026290 0.026426 0.022889 0.033027 0.007847 0.000074 0.031240 0.003672 -0.005311 -0.019208 0.003534 0.005262 0.028387 0.016116 0.020635 -0.007326 0.037193 -0.008977 -0.000502 0.003424 -0.006158 -0.004733 0.000707 0.008199 0.011961 -0.006626 -0.015647 0.013289 0.019502 -0.007870 0.036848 0.001286 0.004631 -0.021217 0.016939 -0.003207 -0.023555 0.018040 0.004063 -0.027382 0.027241 0.046632 0.010528 0.037007 0.002832 0.002470 -0.023662 0.012994 -0.012198 -0.015328 0.045138 0.025913 -0.013363 -0.023281 0.003458 0.028089 0.008143 -0.000169 0.036524 0.006142 -0.002109 -0.029850 -0.016072 0.046937 0.008525 0.006396 -0.013327 0.028848 -0.011691 0.015210 -0.018190 -0.030311 0.003019 -0.000928 -0.011506 0.052129 -0.005840 -0.000739 -0.002950 -0.002410 0.030170 0.005016 0.004527 -0.030710 0.013648 0.013877 0.002675 -0.004089 0.012850 0.025873 -0.012388 -0.015926 0.020995 0.006709 -0.004046 0.023192 -0.027762 0.005922 0.016167 0.020494 0.012280 0.013967 0.011689 0.014976 0.005541 0.003093 -0.001798 -0.018536 0.000146 -0.000122 -0.002089 0.006664 0.006444 -0.006384 -0.001473 -0.013404 0.008955 0.009482 -0.018817 0.004147 -0.003013 -0.003363 0.002866 0.011010 0.029567 0.011850 -0.007723 0.003055 -0.000115 0.016762 -0.010851 0.009555 -0.005021 0.006141 0.023930 -0.001613 0.014640 -0.004547 -0.003625 -0.006580 0.000364 0.002350 -0.006633 0.000123 -0.002861 0.003458 -0.000041 -0.018893 -0.003004 0.001056 0.006501 0.003887 0.005156 0.006488 0.006399 -0.003637 0.004403 0.012050 0.011496 0.001558 0.006919 -0.009104 -0.010676 -0.007389 -0.012002 -0.006862 -0.000271 0.005728 0.015341 0.006490 0.028707 0.011880 0.007069 -0.004954 0.023619 0.023202 0.011107 0.002543 0.007053 -0.010737 0.021007 0.003442 0.015365 0.013932 -0.004326 0.007288 -0.000137 0.016968 0.025947 0.022135 0.004263 -0.010346 0.024311 0.007392 0.000785 -0.000357 -0.007996 0.004888 0.007049 -0.000178 -0.007101 -0.010950 -0.010978 0.002998 -0.004877 0.051950 -0.011167 0.005907 0.008794 0.003940 0.006970 0.008907 0.014411 -0.008381 0.002056 -0.007694 0.015302 0.000132 -0.002666 -0.006445 -0.003864 -0.000212 -0.011213 0.019539 -0.009027 -0.027616 -0.014107 0.009405 0.000718 -0.003355 -0.033812 -0.002593 0.017399 0.016601 0.020259 0.019869 0.001554 -0.041079 -0.010760 0.004365 0.006924 0.005073 -0.011364 -0.006365 -0.001352 0.014336 -0.004463 -0.002378 0.018067 -0.014200 -0.001682 0.008568 -0.000805 0.001007 0.009434 0.036974 0.004853 -0.006534 -0.026705 0.036028 -0.017776 0.002979 -0.001163 -0.027561 0.000216 0.009906 0.022482 0.020414 -0.000457 -0.004305 -0.010903 0.020076 0.028062 -0.000668 0.008134 0.053581 0.004005 0.001492 0.058104 0.029963 -0.012199 0.033566 0.003282 0.005742 -0.009556 0.002287 -0.007650 -0.009719 0.037929 0.038846 0.002567 0.026587 -0.027941 -0.002196 0.011350 0.027281 0.004134 0.013534 0.001261 -0.000034 0.001955 0.024500 -0.011075 0.010674 0.012998 -0.000878 0.007684 -0.002292 -0.015122 0.007082 0.028347 -0.005361 0.059037 -0.010756 -0.001243 0.018872 0.006149 -0.015012 -0.002490 0.027038 0.004833 -0.017576 0.001061 0.000740 -0.000469 -0.004464 0.036997 -0.030202 0.022234 0.005517 -0.038711 -0.054193 0.000647 0.007814 0.000046 0.001139 0.025174 0.024486 0.020504 -0.001906 0.004527 -0.015531 0.010552 -0.003419 0.030345 0.003546 -0.002347 -0.013714 0.002245 -0.015669 -0.004072 -0.018818 0.000842 -0.008159 0.014470 -0.030350 0.021247 -0.022079 0.003449 0.007179 -0.000313 0.001805 0.014486 0.014067 0.026722 0.010869 0.016886 -0.008876 -0.004012 0.009030 -0.027293 -0.013961 -0.028261 0.000445 -0.001174 0.006629 0.025625 -0.014111 -0.004234 -0.001091 -0.007147 -0.006243 -0.000646 0.000602 -0.022978 0.003144 -0.015452 0.003859 -0.032981 -0.039827 -0.016286 -0.007790 -0.007440 0.027190 0.000802 -0.001196 -0.008172 0.002888 0.009818 -0.009532 -0.000991 0.016482 -0.010473 0.001874 0.032235 -0.003036 0.005569 0.002014 -0.014615 0.003115 0.010856 -0.019793 0.002404 0.018333 -0.001380 -0.003171 0.017219 0.006808 0.008893 -0.000111 -0.001835 0.012647 0.021096 0.000076 0.002744 0.005940 0.021541 0.023622 0.002159 -0.008590 0.038484 0.014344 0.014971 0.016239 -0.015646 0.004034 -0.003386 0.000757 0.019971 0.003754 0.001973 -0.000994 0.003150 -0.001439 -0.007349 0.000580 -0.008608 0.034268 -0.004405 0.026759 -0.001186 -0.005722 -0.008414 -0.007783 -0.016585 -0.027181 0.005893 0.009097 0.029163 -0.047721 -0.001137 -0.018200 -0.001864 0.009610 -0.006773 -0.001078 -0.004120 -0.002234 0.001731 0.007575 0.000534 0.004696 0.004583 0.005904 -0.007020 0.012437 -0.000397 -0.002069 -0.000876 0.004890 0.004753 -0.005282 0.003264 0.002390 -0.000798 0.001067 -0.008195 -0.006379 0.009665 0.010405 0.006810 0.000177 -0.000785 0.005440 -0.004057 -0.002500 0.006988 0.005163 0.004708 -0.000221 0.006700 0.003881 0.001715 -0.000859 -0.004318 -0.001535 0.007996 0.003567 -0.002597 0.003777 0.003512 0.011221 0.009549 -0.002323 -0.000864 -0.004680 0.000466 0.003841 -0.001917 0.004815 0.002628 -0.002266 -0.001254 -0.007957 -0.003289 0.000833 -0.003577 -0.002541 -0.004707 -0.000163 0.006161 0.003506 0.008120 -0.005898 -0.001708 0.006580 0.002655 -0.003203 -0.013437 -0.009058 -0.001120 0.002060 0.000912 0.003419 0.003764 0.003334 0.013381 0.000804 0.005345 0.005354 0.002063 -0.003258 -0.008215 -0.000741 0.004120 -0.000497 0.001544 -0.003855 -0.001727 0.000933 0.002667 0.006137 -0.002046 0.008670 0.002634 0.003280 -0.002212 0.003365 -0.001053 0.006265 0.001468 -0.008299 0.003787 0.001441 0.009487 -0.002201 -0.007666 -0.008252 -0.002047 0.004288 0.005519 -0.002601 -0.007742 0.002146 -0.002168 -0.024886 -0.005170 -0.016413 -0.012611 0.002684 0.012213 0.015928 -0.008161 0.019176 0.020030 0.000689 0.001110 0.005017 0.009176 -0.003171 -0.008928 -0.015191 0.022868 0.005212 0.025706 -0.004622 -0.000845 -0.003199 0.007099 0.004936 0.000280 0.020439 -0.006133 -0.006779 0.037536 -0.016109 0.006063 -0.012263 -0.008104 -0.002331 0.008195 0.021974 0.015227 -0.008155 -0.002526 0.003101 0.000448 0.000995 0.007837 0.021163 0.024682 0.019033 0.002464 0.019761 0.008205 0.016102 -0.001245 -0.005980 0.016448 0.012951 -0.006266 0.009412 0.022950 -0.006395 -0.019407 0.016786 0.024986 -0.003902 0.011011 -0.001546 -0.008980 -0.008173 0.002267 0.004213 -0.012135 0.007439 0.018401 0.006582 -0.012203 -0.029887 0.024083 -0.006092 -0.002083 0.015102 0.020948 0.001721 -0.023372 -0.021582 0.014747 0.015588 -0.009926 -0.019777 -0.010816 -0.022272 -0.007032 0.027213 -0.031074 -0.002439 0.023920 0.004084 0.003791 0.000660 0.001977 -0.000951 0.034285 0.041489 0.003504 -0.002751 0.005402 -0.011874 -0.018019 0.005368 0.009063 0.000699 -0.000765 -0.012303 0.001283 -0.000660 -0.009386 -0.007076 0.000898 0.019441 0.003674 0.027139 -0.004501 -0.005597 0.014222 0.004942 0.001142 0.008372 0.011800 -0.013172 0.003606 0.005628 0.015282 0.017089 0.001233 -0.003139 0.012442 -0.006909 0.004785 0.014623 -0.003647 0.013701 0.000987 0.001145 0.007711 0.003054 -0.002955 0.004700 -0.001368 -0.000948 0.003470 0.022021 0.028800 0.006225 -0.003487 0.001036 0.002484 0.006902 0.013234 0.014758 0.026823 0.006802 0.011597 0.012106 0.012947 0.019075 -0.001353 0.006020 0.000669 -0.008823 0.002808 0.004350 0.021630 -0.008835 0.012381 0.000508 0.002272 -0.013006 -0.001944 0.001240 -0.006443 -0.009117 0.008205 -0.015731 0.003874 0.011547 0.005793 0.014622 0.007800 0.007104 -0.021308 0.001511 0.019780 0.007578 -0.015094 0.005692 -0.007941 -0.000231 -0.024525 0.004045 0.003677 -0.002211 -0.002537 -0.013594 -0.002061 -0.013029 -0.010487 0.000150 -0.016407 -0.010987 -0.012229 0.001463 -0.004792 0.008797 -0.016192 0.020513 0.008989 -0.003063 -0.001083 0.014676 -0.000310 0.011454 0.009996 0.014148 -0.000843 0.006046 -0.008067 -0.005751 -0.004993 0.000804 -0.014527 -0.010884 -0.005783 0.011467 0.002676 0.006836 0.034070 0.003767 0.000071 0.001316 0.017386 0.001501 0.008648 0.002158 -0.004790 -0.000977 0.001048 0.012117 0.000990 0.009299 -0.013526 0.004359 0.008076 0.008074 0.004334 -0.004034 -0.000798 0.002364 0.004734 0.006477 0.002948 0.000125 -0.008847 -0.005011 0.004245 -0.001496 0.009159 0.007359 0.014664 0.011144 -0.004266 -0.012307 0.010736 0.006468 0.012578 0.012643 0.000864 0.007368 0.015440 -0.000580 0.004966 0.006387 -0.011518 0.010640 -0.004520 0.006347 0.009325 -0.008228 0.005451 -0.000886 -0.012254 -0.006381 0.000117 0.009585 0.002481 -0.004709 0.001138 -0.007776 -0.006795 -0.000305 0.005950 -0.003808 0.008729 0.000564 -0.001720 0.002024 -0.006641 0.002324 0.003060 -0.004432 0.004004 -0.002778 -0.005771 0.001803 -0.001350 -0.000052 0.009357 -0.006767 -0.002349 -0.006489 -0.005051 -0.001586 -0.002870 0.001354 0.000908 -0.000298 0.007344 0.000615 0.005819 -0.003402 -0.001046 -0.013471 0.006075 -0.004132 0.005366 0.000860 0.016989 -0.011117 0.004948 -0.001668 -0.006941 0.002681 0.005097 0.007693 0.001668 -0.001122 0.002112 -0.001501 0.003067 0.005145 -0.003477 -0.010556 0.007152 -0.010096 0.007411 0.007863 0.006340 0.005410 0.003927 -0.008287 0.000929 -0.000578 0.001837 0.000225 -0.007823 0.006993 0.005480 -0.016705 0.002280 -0.009122 -0.017592 -0.011331 -0.027602 0.008618 -0.002286 0.015135 -0.000478 0.001962 -0.003842 0.023282 0.008062 -0.008811 -0.018049 -0.003426 0.004462 -0.003524 0.036561 -0.006675 0.033518 0.031337 -0.007969 0.009763 -0.002508 0.019473 0.020133 0.002621 -0.000586 0.010738 0.016268 0.012149 0.004004 0.006101 -0.019460 -0.000447 -0.008325 -0.008517 -0.006958 -0.005452 0.005703 0.003509 0.036005 -0.001418 -0.023075 0.008350 -0.006106 0.007169 0.040316 0.000946 -0.005151 0.009147 -0.022693 -0.008505 -0.001048 0.032481 -0.002956 0.014158 0.017060 -0.003633 0.009249 0.003508 0.007271 -0.000526 0.008124 0.020640 -0.010258 -0.003255 -0.005468 0.005715 0.006131 0.029564 0.032302 0.019354 0.004158 0.007913 0.013655 0.034176 0.009166 0.021401 0.020443 0.021590 0.004860 0.002848 -0.002520 0.015946 0.005763 0.001019 0.036191 0.008795 -0.001226 0.016767 -0.000764 -0.017336 0.013404 0.010988 -0.006473 -0.003710 -0.011168 -0.006605 0.010181 0.000555 0.045102 -0.005434 0.016941 -0.005348 -0.005007 -0.002219 -0.003497 0.000800 -0.030298 0.002092 0.019860 0.029665 -0.018890 0.004329 -0.010991 -0.006692 0.002211 0.031113 -0.043034 -0.018344 0.016190 0.008944 -0.005619 -0.013960 0.019771 0.030076 0.004192 0.002873 -0.002568 0.035047 0.011561 0.010102 0.021586 -0.009380 -0.008924 -0.000162 -0.042562 -0.018041 -0.022273 0.003300 0.009911 -0.004170 -0.006019 -0.027748 0.057807 0.000325 0.036419 -0.001633 0.008381 0.012246 0.002778 0.008133 -0.004265 0.012125 0.002416 0.008810 0.000465 0.000261 0.018186 -0.004465 0.007033 0.019135 0.009420 -0.009668 0.014845 -0.010519 -0.010365 0.002033 0.003466 0.001627 -0.007432 -0.013934 -0.001043 -0.001929 -0.003457 0.000951 0.006126 -0.008586 -0.011638 -0.006436 -0.005672 0.003344 -0.005425 0.003622 -0.018162 -0.000687 -0.015588 -0.000995 0.021255 0.009726 0.000886 0.023529 -0.004880 -0.002992 -0.001896 0.019402 -0.015671 0.000514 0.019337 0.012289 -0.002254 -0.020189 -0.001118 -0.010459 0.002692 -0.004420 0.016892 0.002287 0.050940 -0.000593 -0.012108 0.004361 -0.014750 0.005937 -0.002815 -0.000074 -0.005194 -0.013069 0.006268 0.009717 0.012410 0.008057 0.016150 -0.014664 -0.030608 -0.007562 -0.004749 0.009461 0.010151 -0.017464 -0.002000 0.017267 0.004774 -0.013847 -0.003418 -0.016331 -0.009560 -0.005952 0.006281 0.041600 0.014415 -0.002782 -0.007469 0.021198 0.018404 -0.000994 -0.009567 0.003207 0.007752 0.028377 -0.025952 0.018792 -0.015394 0.003071 -0.009751 0.017856 0.010425 0.014134 0.019536 0.011629 0.023687 0.006947 -0.022521 -0.000251 0.007791 -0.026970 0.011600 -0.015489 0.006819 0.002592 0.013781 0.033826 0.004872 -0.003619 0.008802 -0.004744 -0.015827 -0.002605 -0.006327 -0.011756 0.002889 -0.008460 -0.007863 -0.039782 -0.043434 -0.022509 0.025387 -0.002419 0.032835 0.006742 0.005443 -0.003288 0.003316 -0.000242 -0.006144 -0.012234 0.006434 -0.021997 0.020578 0.035728 -0.002897 0.019663 -0.010447 0.006187 -0.004817 0.003442 -0.028720 0.000788 0.020154 -0.018309 0.000368 0.000679 0.019645 0.013620 0.002011 -0.003497 0.003841 -0.002151 0.002284 -0.003623 0.020269 0.029725 0.012584 0.003465 -0.005933 0.024684 0.021050 0.014854 0.004261 -0.012966 -0.002648 0.003838 -0.003699 -0.002205 -0.008056 -0.005811 0.001004 0.008617 0.006121 -0.008131 -0.006364 -0.007331 0.025050 -0.004745 0.020733 0.009296 -0.009516 0.002257 0.003052 -0.008975 0.001739 0.005719 0.030788 0.021724 -0.038832 -0.003145 -0.004624 0.015562 0.005454 -0.007041 -0.004658 0.000784 -0.003145 0.006067 -0.008201 0.007600 0.012212 0.006485 0.006442 -0.001515 -0.000506 -0.008375 -0.000420 0.001299 -0.003182 0.011713 -0.002695 0.006667 0.003388 -0.005513 -0.006087 0.002973 0.001364 -0.008306 -0.000023 -0.004527 0.001829 0.005798 -0.002752 -0.000788 -0.003147 0.000305 -0.008181 0.002643 -0.003306 -0.008996 -0.003899 0.010697 -0.001251 -0.004111 0.002700 -0.001609 0.006532 -0.004990 0.004590 -0.008336 -0.002954 0.009653 -0.003422 0.003022 -0.003825 0.002040 -0.001324 0.006587 -0.004323 -0.003785 -0.000310 -0.004602 0.004835 -0.000280 -0.006045 -0.000985 0.004863 -0.001580 -0.007072 -0.007215 -0.013448 0.001946 -0.010995 0.003091 -0.001262 -0.000096 0.007446 0.000408 0.001003 -0.000822 0.002263 -0.007127 0.000621 0.005804 0.000393 -0.001491 -0.001234 -0.010362 -0.003914 -0.003941 -0.004997 0.003933 0.009771 0.009705 0.000373 0.003529 0.007364 0.013666 -0.008808 0.005564 -0.004669 0.007917 -0.011875 -0.003688 0.002438 0.001774 -0.004459 -0.008394 0.009543 -0.007687 -0.004747 -0.009180 0.003235 -0.002706 0.001773 -0.003355 -0.006571 0.005229 -0.006981 -0.003688 -0.001817 -0.000295 0.008189 -0.002759 -0.003873 -0.007850 -0.001538 0.006154 -0.004571 0.007593 0.002405 -0.006108 0.005950 -0.007504 -0.002370 0.004441 -0.003144 -0.002909 -0.015436 -0.002172 -0.001478 -0.004746 0.007718 -0.005064 -0.002187 -0.000693 0.014666 -0.000881 -0.001234 -0.000399 -0.002462 -0.000296 -0.002378 0.002341 -0.001979 0.005720 0.007020 -0.006279 0.001587 0.008676 0.003162 0.007375 -0.003559 0.007933 -0.010397 -0.009117 -0.003211 0.002409 -0.001874 -0.001112 0.010471 -0.002190 -0.004523 0.004326 -0.010399 -0.003459 0.004693 0.006707 0.013238 0.003484 -0.002035 -0.003886 -0.007267 -0.003171 0.005621 0.001074 -0.002263 0.002938 0.006715 -0.002890 0.006936 0.006389 0.003020 -0.000743 0.005537 0.002514 0.013293 0.000332 0.002143 0.004887 0.004489 -0.002683 0.002037 -0.002658 -0.000368 -0.008182 0.001224 0.004121 0.000490 0.004522 -0.002328 0.007136 0.005851 -0.004538 0.004276 -0.011612 0.001135 0.002805 0.007017 -0.011096 -0.007240 0.005257 -0.001077 0.001623 -0.004806 -0.002054 -0.000726 -0.004508 0.002151 -0.004040 -0.002720 -0.010336 0.006836 -0.003502 0.006199 -0.001048 0.009843 -0.004159 -0.007159 -0.006419 0.004601 -0.000877 0.001495 0.003217 0.004520 0.015527 -0.005428 0.017948 -0.018748 0.025296 -0.004935 0.024613 -0.002703 0.027485 0.026477 -0.002729 -0.011618 -0.004551 -0.032556 0.027912 0.028472 0.000012 -0.002178 0.000266 -0.001180 0.019302 -0.006875 0.001076 0.002578 0.028682 -0.005084 -0.000101 0.014438 0.021361 0.034521 0.001657 0.000900 -0.008047 -0.027117 0.007711 0.008757 0.004584 -0.015365 0.021761 -0.009388 0.020850 0.024138 0.010356 0.009517 0.030208 0.027762 0.022901 0.006063 0.031852 0.000007 -0.012324 -0.009351 0.001897 -0.001486 -0.031617 -0.004656 -0.012699 -0.005899 -0.000530 0.007204 0.021829 -0.014119 0.007891 0.005662 0.001604 0.007318 -0.012066 -0.015049 0.029623 -0.001945 0.014207 -0.020838 -0.002269 -0.005610 0.035507 0.023685 -0.000757 -0.004739 -0.002554 0.023531 -0.005868 0.007191 -0.005706 0.008809 -0.015842 -0.003216 -0.010225 -0.037888 -0.043508 0.000790 -0.027069 0.038646 -0.001138 0.006071 -0.000406 -0.003376 -0.001919 -0.003756 0.004496 0.019809 0.025920 0.003745 0.001083 0.024844 -0.006201 0.031976 -0.016751 0.027883 0.019936 0.050951 0.022010 0.011219 0.016269 -0.003441 -0.010736 -0.013578 0.045082 0.000995 0.038935 0.023024 0.007024 0.023555 0.010844 0.023917 0.009953 0.024174 0.013376 0.009418 0.014856 0.008963 0.029220 -0.014476 -0.011720 -0.008045 -0.019183 -0.000282 0.012374 0.012594 -0.004008 -0.007036 -0.019806 0.021867 0.012135 0.003236 -0.010401 0.022697 -0.006198 0.006623 0.006339 0.012334 -0.003536 0.000494 0.003992 0.000951 -0.028685 0.016527 0.001528 -0.000124 -0.017646 0.014445 -0.006701 0.014548 0.025605 0.003085 -0.004900 0.024302 0.012960 0.019212 0.013357 0.009712 -0.001556 -0.014750 -0.016243 0.000741 -0.023559 -0.013881 0.008904 -0.021071 -0.003401 0.011683 0.030375 0.011474 -0.010126 0.002752 -0.001939 0.010926 0.003732 -0.006018 -0.013433 0.020580 0.017956 0.038407 -0.002728 -0.001051 -0.011652 0.054304 0.015581 0.000340 0.000882 0.010055 0.013887 -0.001750 -0.008505 -0.006543 0.016570 -0.012371 0.006666 0.022417 0.007754 -0.020269 -0.009357 -0.051900 0.017001 -0.005172 -0.011955 -0.005643 0.034330 0.006031 -0.005984 0.006153 0.008095 0.023974 -0.008329 -0.007604 0.015335 0.016661 0.035590 -0.007827 0.007916 0.032700 0.044311 0.001522 -0.000959 0.010764 0.000743 -0.021060 -0.010977 0.012748 0.008827 0.023534 0.014218 -0.001219 0.031932 0.008364 0.046073 0.021717 -0.010011 -0.001325 -0.017534 0.016312 0.034181 0.000501 -0.012134 -0.000487 0.048438 0.024205 -0.020003 0.008988 0.009917 0.009712 0.004384 0.017014 -0.000151 0.034966 0.007873 0.030583 0.021373 -0.006549 0.037115 0.047141 0.004322 -0.021223 -0.003292 0.007699 0.039417 0.055176 0.011510 0.007026 0.048515 0.028490 0.005856 -0.011680 -0.005575 0.018848 0.003225 0.002369 -0.029133 -0.039265 -0.015991 0.005921 -0.006253 -0.003205 0.022342 -0.012480 0.003881 -0.034309 0.016514 -0.005913 0.015000 -0.004327 0.026154 -0.034624 -0.000729 0.034768 0.006351 0.026472 0.021161 -0.002847 -0.009502 0.005936 -0.011073 0.010134 -0.008413 0.048772 -0.006457 -0.006021 -0.034062 0.003284 0.002980 -0.000598 0.025743 -0.012745 0.002828 -0.029625 -0.001876 -0.009057 -0.006760 -0.004574 0.007316 0.035470 0.029158 0.018245 -0.008452 0.005242 0.001515 -0.001948 -0.000095 0.033548 -0.001203 0.011017 -0.009056 -0.051180 -0.034134 -0.007246 -0.011262 -0.017550 0.045714 -0.001213 0.007566 -0.012864 -0.004896 0.006882 -0.016608 0.003182 0.049012 -0.002852 -0.004131 0.043281 -0.011555 -0.001662 -0.052522 -0.023697 0.002631 0.000520 0.045554 0.026034 -0.020419 -0.018164 0.008553 0.024720 0.009780 -0.012472 -0.000632 0.000206 0.010230 -0.009065 0.003502 -0.033382 0.018815 -0.014050 0.018064 -0.006956 0.026361 0.039787 0.011254 0.032378 0.009091 -0.031368 -0.004610 0.006190 -0.026220 0.028497 -0.009092 0.020561 0.003377 0.010815 0.022251 0.001897 -0.003808 0.009747 -0.005521 0.001488 0.002883 -0.011235 0.004650 -0.001849 -0.009541 -0.033771 -0.070304 -0.028979 -0.025015 0.039090 -0.004420 0.040937 0.022949 -0.001714 -0.010226 -0.010717 -0.006879 0.001629 -0.020447 0.007362 -0.023380 0.017804 0.038771 0.002779 0.025612 -0.000346 0.005678 -0.012252 0.006976 -0.016656 -0.003318 0.000213 -0.036967 -0.000893 0.016947 0.012615 0.020550 0.008625 0.002252 -0.022739 -0.003068 -0.002058 -0.028707 0.034748 0.016519 -0.006350 0.002871 -0.008087 0.026547 -0.002389 0.013509 -0.019280 -0.016256 0.005739 -0.012518 -0.003227 -0.001294 -0.003828 -0.019055 -0.003545 0.007870 -0.014024 0.000261 -0.001762 0.008955 0.021160 0.008665 0.022266 0.005825 -0.006414 0.015245 0.007028 0.000364 0.031560 -0.003330 0.037545 0.029065 -0.029389 -0.005524 -0.000969 0.016970 0.007579 -0.002895 0.026549 0.021203 -0.011279 0.014302 -0.003573 0.026226 -0.006200 -0.001798 0.005426 -0.002038 -0.006601 0.005506 -0.016705 0.011459 0.021912 -0.007738 -0.013811 -0.001755 -0.004131 0.013777 0.003652 0.001566 0.014912 0.015212 0.000702 -0.000262 -0.003732 0.017809 0.018076 0.007486 0.005037 -0.009205 -0.027285 0.004913 0.009664 0.001731 -0.009794 0.010746 0.004114 0.010105 0.016842 -0.002294 0.008058 0.018158 0.015998 0.029838 -0.004954 0.026483 -0.003692 -0.003331 -0.007151 0.000519 0.017919 -0.015963 0.001337 -0.002891 -0.007080 -0.002384 0.032263 0.009510 -0.003308 0.002017 -0.001166 -0.007561 0.020358 0.004877 -0.004069 0.023520 0.028076 -0.001179 -0.006873 0.006455 0.008021 0.009916 0.006421 0.013570 -0.002069 -0.019292 0.007816 -0.000817 0.011463 -0.003341 -0.009604 -0.014329 0.009202 0.002387 -0.018445 -0.020786 -0.014860 -0.033743 0.036927 0.005915 -0.011796 0.007399 0.002790 -0.000110 -0.001498 0.003659 0.017614 0.001312 0.006907 -0.007494 0.020352 0.010893 0.013522 -0.014952 0.010293 0.025217 0.041294 0.009848 0.011719 0.018128 0.004642 -0.003725 0.002199 0.038890 -0.004276 0.031023 0.007157 -0.010677 0.012019 0.001366 0.016255 0.020728 0.008809 0.009742 0.007577 0.007088 0.032166 0.004136 -0.006408 -0.009136 0.042137 -0.000753 0.009931 0.010330 0.003355 0.001899 -0.001268 0.004690 -0.010999 -0.001271 -0.016850 0.017451 0.018777 0.002158 0.022712 0.043242 0.002860 0.011241 -0.004563 -0.005498 0.003710 -0.002934 0.018903 0.004165 0.032903 0.025828 0.022423 0.010448 0.006683 0.026606 -0.011361 0.011308 -0.010363 0.023292 0.024110 0.012593 0.018740 0.009409 -0.003420 -0.010834 0.007133 -0.006113 -0.002311 0.003628 0.007225 -0.008015 0.013968 -0.010124 -0.001034 0.002461 -0.003932 0.017093 0.015367 0.002644 -0.006817 -0.009182 0.017735 -0.007354 -0.013641 0.038022 -0.004693 -0.003522 -0.045659 -0.008551 -0.004730 -0.006848 0.019137 -0.012047 -0.001160 -0.021375 -0.019168 -0.012293 -0.007459 -0.012831 0.001965 -0.013051 -0.003942 -0.003444 -0.018770 0.011691 -0.005534 0.007118 0.003328 0.014410 0.004436 0.018026 0.000995 -0.014647 0.015829 -0.001559 -0.002364 0.001111 -0.008154 0.003917 -0.019303 0.004124 0.008093 0.011245 -0.007438 0.004398 0.030079 0.003747 -0.010262 0.006286 0.037036 -0.003509 0.004104 -0.005992 0.001377 -0.002449 -0.004424 -0.000713 -0.003300 0.004861 0.001552 0.001594 0.002945 0.002762 0.004875 -0.000531 0.002451 -0.002950 0.010628 0.001145 0.001267 -0.000874 -0.010156 0.006367 -0.001677 -0.003551 -0.003275 -0.002108 0.005191 -0.005927 -0.001999 0.004994 -0.004733 0.009472 -0.000484 0.003987 -0.000868 -0.002744 -0.001748 -0.000663 -0.007270 -0.003767 0.004828 0.004738 -0.006935 -0.004238 0.003659 0.003095 0.006164 -0.003860 0.008198 -0.006233 0.002559 -0.007872 0.001599 0.007217 0.006463 0.001002 0.000047 0.000285 -0.000850 0.000736 -0.000818 -0.000444 -0.003399 0.011983 -0.006914 -0.004504 0.004244 0.000464 0.005636 0.001902 -0.003819 -0.002135 0.005797 0.000942 0.002558 -0.003999 -0.001991 -0.002446 0.001704 -0.004281 -0.002647 -0.016064 -0.004304 -0.005830 0.002348 0.009395 -0.003597 0.013169 0.008543 0.004174 0.000876 0.002375 0.004957 -0.006329 0.001090 -0.002949 0.006368 0.006227 0.000632 0.002963 0.007895 -0.002328 -0.006963 -0.002150 0.001693 0.001186 -0.004038 0.001956 0.000380 -0.006601 0.001366 0.000207 0.007327 0.005630 0.005202 -0.004577 -0.001718 -0.005688 -0.001923 0.001311 -0.008379 -0.003594 0.003451 -0.001614 0.009078 -0.001571 -0.003649 -0.008564 -0.006638 0.006228 0.005202 0.001226 -0.001738 -0.005387 -0.001798 0.000797 -0.002948 -0.001142 0.001151 -0.007359 0.001165 -0.002710 0.004870 -0.000680 0.010013 -0.000685 0.000197 -0.003774 -0.000432 0.004644 -0.001218 0.000380 0.008017 0.001045 -0.002940 0.006719 -0.001528 0.000573 0.004651 0.005118 0.003033 0.002728 -0.000855 -0.004228 0.005986 0.002231 0.002460 0.003943 -0.003440 -0.006269 0.005263 -0.003257 0.001134 0.002241 -0.008714 0.008333 0.004527 0.000346 -0.000639 0.012691 -0.001866 0.009249 0.004149 -0.004139 0.003603 -0.006811 0.005116 0.003768 0.006341 0.008470 0.008933 -0.005462 0.007738 -0.006014 0.007833 -0.005041 0.000795 -0.000105 -0.006027 0.010319 0.005930 -0.004034 0.004478 -0.002935 -0.000565 -0.007692 -0.002572 0.000314 0.001243 -0.001243 0.002537 -0.003190 0.001605 0.000634 0.002178 0.002160 -0.001158 -0.005807 0.003048 -0.014267 -0.001305 -0.000675 -0.001460 -0.004302 0.004518 0.003430 -0.009585 0.004398 0.004890 0.005505 -0.007817 0.004936 0.002247 0.000091 -0.009153 0.002396 0.001580 -0.001546 -0.015673 -0.008015 0.002947 0.007831 -0.000785 0.006391 -0.000458 0.000515 0.015569 0.000170 0.017607 -0.013887 0.017191 -0.011981 -0.007294 -0.017352 -0.020515 0.009822 0.003837 0.019499 0.009781 -0.007241 0.007794 0.032204 -0.005532 0.010102 -0.002643 -0.028663 0.007091 -0.025451 -0.016064 0.008492 -0.005453 0.033910 0.006563 -0.025545 -0.026254 0.005444 -0.000151 -0.002377 0.022668 -0.003868 -0.007733 -0.012782 0.032234 -0.011598 0.011485 -0.012737 0.009997 -0.005038 0.010656 -0.014895 0.009930 0.008216 -0.001796 -0.013929 -0.000479 -0.011944 -0.003032 0.000692 -0.003219 0.027341 0.001419 0.035773 -0.019565 0.017401 0.025250 -0.005344 0.009178 -0.002126 0.017399 0.000639 -0.000992 0.041111 0.007677 -0.011213 0.019184 0.005531 0.011157 0.013351 0.010422 0.009001 -0.012028 -0.000048 -0.002259 -0.003468 -0.011179 -0.001630 0.034804 0.018067 -0.024199 0.003250 0.014614 0.027280 0.032703 0.042318 -0.006768 0.009628 0.008021 -0.003199 0.008676 0.001193 0.022456 0.010612 0.005918 0.008734 -0.038049 0.001651 -0.003462 -0.003050 -0.005645 0.028575 -0.003372 -0.009118 -0.008115 -0.014348 -0.033629 0.003970 0.004813 0.009984 0.006436 -0.003162 0.007149 -0.012611 -0.000410 -0.035783 -0.008549 -0.003877 -0.003837 0.009149 -0.004102 -0.006012 -0.003771 0.006385 0.005290 -0.000375 -0.004971 -0.015644 0.010841 0.013902 0.004894 0.017581 -0.003220 -0.024151 0.000448 -0.002319 -0.003162 0.021468 -0.007635 0.005550 0.003786 -0.000619 -0.009325 0.002342 0.006322 -0.009142 -0.011924 -0.003384 -0.001126 0.000207 -0.009852 0.016338 -0.014048 -0.008860 -0.000504 0.030966 -0.004546 -0.002426 0.003564 -0.017154 -0.000141 -0.005854 0.006640 0.022387 0.000852 -0.008503 0.001989 0.002875 0.006927 0.003312 -0.001593 0.017691 0.012922 -0.005067 0.025143 0.008384 -0.004626 0.002674 0.007432 0.012095 -0.005383 0.003289 0.002653 -0.002616 0.019834 0.013057 0.004059 0.003490 -0.005037 0.003054 0.010182 0.003816 -0.004362 -0.008523 -0.005337 0.000793 0.010101 0.016987 -0.000077 0.009482 0.008997 -0.001433 0.011678 -0.001169 0.003194 0.008618 0.018467 0.005245 0.039394 -0.012389 -0.002362 0.011103 0.005946 -0.007199 -0.004714 0.006064 -0.011926 -0.000051 0.006559 0.002735 -0.004354 0.001541 0.016850 -0.018511 0.014845 -0.004682 -0.017169 -0.030183 -0.003335 -0.003228 -0.010423 0.000812 0.002711 0.004784 0.004479 0.005207 -0.008044 -0.001250 0.001202 0.003895 0.001581 0.006152 0.005435 0.007167 -0.002891 -0.000338 0.007666 0.011547 0.008582 -0.007512 -0.005737 0.006987 0.000414 0.011975 -0.003998 0.003384 -0.008540 0.001192 0.005332 0.009325 0.000471 0.004946 0.005005 -0.000178 0.003501 -0.003882 0.001397 0.014789 0.003949 0.007202 0.000279 -0.006841 -0.009835 -0.000449 0.002884 0.006866 -0.006325 0.007116 0.006324 0.004396 0.007861 0.004880 0.000360 0.001645 -0.010018 -0.001656 -0.005375 0.016490 0.000534 0.000948 0.003506 -0.004088 0.005879 -0.004021 -0.002141 0.006652 -0.004271 -0.011821 0.004561 -0.001811 0.002018 -0.004494 -0.000710 0.002341 0.009313 -0.004108 0.004290 0.004049 0.005014 -0.004547 -0.008189 -0.000555 -0.004037 0.008178 0.000474 0.003290 0.001797 0.002873 0.004311 0.000172 -0.006343 0.002120 0.000072 -0.001355 -0.000562 0.006249 -0.006171 -0.003426 -0.001897 -0.005344 0.010677 0.002153 -0.007102 0.002738 -0.005029 -0.000366 0.003042 0.002375 0.001126 0.005036 0.006086 0.004131 0.019029 -0.001642 -0.001487 0.004910 0.001276 -0.000552 0.009812 0.002866 0.009591 -0.003858 0.007369 0.003020 0.001355 -0.003014 -0.008790 0.006244 0.003232 -0.007478 0.001586 -0.003076 -0.007817 -0.001090 -0.001361 0.007793 -0.005978 -0.003331 0.001118 0.005726 0.011712 -0.021278 0.015936 -0.003690 -0.004498 0.004144 0.000385 -0.009203 0.000114 -0.001953 -0.003887 -0.006477 -0.001399 -0.008934 -0.003006 0.003929 -0.007348 -0.005825 0.005529 0.008670 0.000722 0.005420 0.003416 -0.001594 0.002267 -0.001695 0.003924 -0.006421 0.003217 0.000588 -0.002760 -0.001396 -0.003992 0.004095 0.002405 0.011870 0.013113 0.003883 0.002352 -0.001422 0.003275 0.005676 0.001321 -0.004017 0.002205 -0.002516 0.008020 0.004652 0.004117 0.005915 0.001755 0.006284 0.005776 0.008989 0.003445 0.010763 0.004928 -0.005048 -0.003580 -0.002148 0.003839 -0.006977 0.002262 0.001591 0.020547 0.002276 0.006519 0.003225 0.003920 -0.009306 -0.009276 0.010442 0.000614 -0.006868 -0.001431 0.006649 0.005254 -0.003959 -0.008335 -0.000877 -0.003000 0.000840 0.000531 -0.007016 -0.004508 -0.000073 -0.007072 -0.011123 0.005958 -0.002067 -0.001271 0.008536 -0.010280 0.012084 0.001008 0.003610 -0.008319 -0.008531 -0.003988 0.006138 0.000053 -0.009036 -0.012280 0.001499 0.000829 -0.005462 0.002606 0.001701 0.004822 -0.006785 -0.011282 -0.005733 -0.003971 -0.003734 0.002156 -0.002734 -0.001912 -0.005205 0.011212 0.000501 -0.003592 0.002149 -0.003369 0.001440 0.003037 0.002196 0.003396 -0.001508 0.000888 0.006388 0.001778 -0.001617 0.002311 0.008133 -0.009381 -0.003169 0.001643 0.003733 -0.006721 0.000783 0.002411 0.001270 -0.002964 0.004084 0.002639 0.000499 0.009821 0.005230 0.007100 0.011406 -0.006079 0.005507 -0.016456 -0.001193 0.006054 0.000776 0.000632 -0.003170 -0.006591 -0.001576 -0.004060 0.000358 0.002987 0.006275 -0.004887 -0.002070 0.001217 0.005599 -0.007934 -0.009294 0.000264 -0.002803 0.001406 0.001134 -0.000115 0.003630 0.001513 -0.006666 0.001118 0.001593 0.000803 -0.004726 0.004044 -0.002716 0.008115 0.002202 0.004883 -0.010564 0.005431 -0.003490 0.000693 -0.005244 -0.008017 -0.002863 0.001977 0.005496 -0.000388 0.000509 0.009848 0.001572 0.001383 0.008847 -0.003925 0.007704 0.002058 0.005164 -0.003552 -0.003480 -0.003504 0.004334 -0.000277 -0.005308 0.006378 -0.008800 0.006798 -0.002048 0.006942 -0.007520 0.001374 0.006361 -0.007400 0.001975 0.000419 -0.004842 -0.009282 -0.000968 -0.007577 0.002066 0.005180 -0.009508 0.000141 -0.005783 0.001316 0.002998 -0.004315 -0.002170 0.003216 0.001024 0.006960 0.004075 0.000130 0.002737 0.002868 0.000608 -0.003875 0.008373 0.003086 0.001047 -0.005703 0.003260 0.004383 -0.001236 -0.002652 0.003587 -0.005019 -0.000514 -0.000410 0.001052 0.001047 0.014205 0.005929 -0.003757 -0.001686 -0.002403 0.003926 0.004246 -0.002257 0.004151 -0.004896 0.010628 0.007304 0.004301 0.000685 -0.002619 0.004908 0.002864 0.001660 0.001457 0.003339 0.005892 -0.001449 0.002900 -0.009745 0.000145 -0.006723 0.000986 0.001666 0.008636 -0.000405 0.000315 -0.010524 0.002909 0.008541 0.004900 -0.005314 0.003454 0.009375 0.011148 -0.002043 0.001222 -0.002379 -0.002817 0.008396 0.002344 -0.003986 -0.004609 -0.003235 0.004674 0.002941 -0.004132 -0.003953 -0.010232 0.003377 -0.007184 -0.001932 0.003171 -0.002167 -0.006061 -0.004043 -0.002839 -0.001335 -0.002702 -0.003053 -0.000026 -0.001145 -0.006670 0.003061 0.003363 -0.003002 -0.001844 0.008610 -0.005170 -0.005296 0.000544 -0.008312 -0.003755 -0.009363 0.000617 0.002174 0.006074 0.003102 -0.002703 0.002480 0.006867 0.003159 0.006452 0.001362 -0.001785 0.005333 0.006671 0.000506 0.000641 -0.004317 -0.009771 0.012728 0.004899 0.015222 0.000029 0.005433 0.013695 0.002123 0.007486 -0.012257 0.001153 0.022278 -0.018336 0.004468 -0.011247 0.007754 0.009417 0.033665 -0.001121 0.023644 -0.001604 0.012787 -0.002319 -0.036189 0.014829 0.000852 0.025512 -0.010730 -0.018771 -0.017852 -0.001291 -0.000145 0.005956 0.011200 -0.001996 -0.019340 0.005642 -0.001353 0.003918 -0.000350 -0.015576 -0.000754 -0.007216 -0.008403 -0.006851 0.008524 0.007211 -0.008411 0.034325 0.005985 0.010538 0.010887 -0.004713 -0.014749 0.017628 -0.004911 -0.006808 -0.003524 0.009296 -0.012608 0.015813 0.025495 0.000602 0.015406 0.002783 0.010357 0.006174 -0.025345 -0.008717 -0.026994 0.020029 0.003175 -0.002139 -0.015468 -0.013233 -0.008078 0.002468 -0.001413 0.017673 -0.006610 0.003955 -0.016831 0.000812 0.014233 0.017554 0.000741 0.009384 0.018051 0.001451 0.014422 0.005773 -0.046765 0.002508 0.004520 -0.007385 0.037921 -0.000307 -0.006577 -0.000113 0.028727 0.033520 0.006417 0.001366 -0.003042 -0.025744 0.019658 0.004348 0.011627 -0.006437 -0.002123 -0.010419 -0.016270 0.015548 -0.005740 0.014473 -0.020416 -0.016917 -0.002979 0.013710 0.024599 -0.001905 -0.013922 0.022882 0.010519 0.007006 0.013046 0.007745 0.017177 -0.009283 0.001772 -0.001335 0.004634 0.024180 -0.003496 -0.014410 0.006906 0.006177 0.011823 0.013321 0.001820 0.019271 -0.014121 0.012195 -0.027877 -0.041046 0.028008 0.001799 0.023931 -0.027425 -0.023284 0.001059 -0.005350 -0.005771 -0.014850 -0.012109 0.009233 -0.003013 -0.009833 0.012712 -0.001607 0.001942 -0.001917 -0.001402 -0.005355 -0.007362 0.006581 0.029090 0.026804 -0.003660 0.005936 -0.011821 -0.023304 -0.016544 0.001439 0.010046 0.010229 -0.000059 0.013078 -0.009798 0.001245 0.017656 0.006575 -0.001989 0.000491 0.011861 -0.004296 0.000503 0.006483 -0.005603 0.016410 0.004907 0.021010 0.001847 0.004222 -0.015816 -0.009115 -0.002156 0.001685 -0.001627 0.005064 0.014723 -0.002088 -0.008779 -0.024628 0.013012 0.016319 -0.000920 0.017864 -0.000924 0.000703 -0.000910 -0.001977 -0.011954 -0.003301 0.013215 0.005163 0.026817 -0.001213 -0.003638 0.003899 0.028377 0.049834 -0.003591 -0.009562 0.006163 -0.008046 0.013974 0.005579 0.030868 0.008019 0.006017 -0.003803 -0.004176 0.005098 -0.001221 -0.017935 -0.041367 0.017888 -0.001912 0.029158 0.019397 0.006894 0.019644 0.026925 0.022039 0.003004 -0.010570 0.005692 -0.030473 -0.003315 -0.006330 0.006309 -0.008552 0.017525 -0.013673 0.022098 -0.005152 -0.002761 0.007811 -0.020342 -0.006707 0.009597 0.027447 0.020237 0.038111 0.035093 -0.000683 -0.004654 0.022918 0.001654 0.001591 -0.019987 -0.002931 0.001530 0.015638 0.048239 -0.021817 0.014846 -0.013727 -0.004937 -0.012012 0.000618 0.010931 -0.025006 -0.005750 -0.004394 0.018842 -0.037690 -0.048128 -0.010899 -0.008559 0.018627 0.017344 -0.006106 -0.002735 0.001547 -0.015941 0.003624 0.014136 0.024579 0.024377 0.018011 0.001290 0.003247 -0.004152 -0.005729 0.011297 -0.015779 0.007938 0.040079 -0.005280 0.033073 0.020688 0.012005 0.002725 0.042486 0.055544 0.023220 0.000952 0.000320 0.009462 0.029982 -0.002885 0.022928 0.023612 0.010802 0.018795 0.016102 0.011803 0.045236 0.019608 -0.002676 0.013897 0.026035 -0.008367 -0.011682 -0.014243 0.008466 -0.000097 0.019787 0.000097 -0.021668 -0.025479 -0.011345 0.005861 -0.020124 0.084844 -0.005673 0.034284 0.000509 -0.005351 0.000969 0.009020 0.000940 -0.025722 -0.002169 0.008448 0.049539 -0.031497 0.003214 -0.033366 -0.017233 0.007826 0.011666 -0.006837 0.015697 0.001489 -0.014852 0.001524 0.006449 0.012184 -0.005747 -0.006527 0.006569 -0.000401 0.033960 0.018661 -0.007272 0.016287 -0.003283 0.021011 0.002206 -0.008964 0.003974 0.008613 0.002427 0.000074 -0.010027 -0.010016 0.008751 0.028963 0.024728 -0.021687 -0.004862 0.005843 0.013197 0.034551 0.014464 -0.005053 0.011498 0.004318 0.006267 -0.003612 0.001728 0.017704 -0.007589 0.002561 -0.024960 -0.013319 0.021787 -0.000779 0.013573 -0.002819 0.021452 0.005187 -0.005728 -0.013486 0.010756 -0.007572 0.001433 -0.005701 0.007798 -0.021879 0.006403 0.032563 -0.002212 0.022372 -0.003037 -0.003410 0.001036 -0.006008 -0.026330 -0.021406 -0.021669 0.010226 -0.004645 0.000105 -0.023783 -0.001918 0.000415 -0.000837 -0.000831 -0.038603 -0.008086 -0.020448 0.009464 -0.006764 -0.016087 -0.004636 0.003325 0.007199 0.023774 0.017505 0.009538 0.017296 0.000093 0.005271 -0.007901 0.019932 0.004053 -0.015516 0.000375 -0.025674 -0.018480 0.012024 -0.001589 -0.004443 -0.003200 0.010846 -0.017184 -0.025673 -0.003554 0.003907 -0.003924 0.005348 0.057042 -0.003385 0.020390 0.004647 -0.019535 0.003116 -0.022077 0.002942 0.001263 -0.006611 -0.000750 -0.005370 0.016626 0.003924 0.020658 -0.002938 -0.004289 0.009006 0.006529 0.002999 0.001101 -0.004845 0.008119 -0.014586 -0.010788 0.008867 0.009831 0.006603 0.005086 -0.004177 0.015368 -0.001493 -0.015415 0.016863 -0.000671 0.017357 0.002367 -0.031403 0.007107 -0.010059 -0.002903 -0.000066 -0.002090 0.000848 -0.014358 0.000527 -0.005592 -0.007916 -0.010950 -0.003828 -0.006662 0.000844 -0.003585 0.011390 0.014471 0.000698 0.000501 0.001998 -0.012615 0.017763 -0.005976 -0.000109 -0.012583 0.023328 0.008203 -0.003925 0.012574 0.009370 -0.006671 0.005054 0.037735 0.009162 0.015560 -0.007057 -0.004483 0.002345 -0.009577 -0.018090 -0.024479 0.020787 0.010411 -0.000601 -0.024331 0.006762 -0.004707 0.002137 -0.002946 0.025709 -0.006835 -0.011095 -0.001237 -0.009289 0.023714 0.023043 -0.005295 0.005132 0.000422 0.008825 -0.001741 0.006640 -0.034042 -0.006927 0.005894 0.001397 0.038060 -0.001090 -0.005733 0.003317 -0.001595 0.037214 0.002060 0.006823 -0.000063 -0.016577 0.021044 -0.007814 -0.004347 -0.000288 0.014541 -0.014373 -0.003505 -0.005251 -0.003923 0.003434 -0.014392 -0.014599 -0.000526 0.002836 0.005658 0.011791 -0.001291 0.015770 0.019346 -0.011354 0.000822 0.004816 -0.005492 -0.003946 -0.010488 0.006433 -0.002754 0.006881 -0.022606 0.005025 -0.005098 -0.005383 0.001647 -0.002910 0.002415 0.006766 0.003891 0.019146 0.000423 0.002460 0.001714 0.001183 0.006351 -0.019098 -0.012572 -0.019533 0.001942 -0.005401 0.004222 -0.004972 -0.000017 0.013352 -0.010321 -0.005598 0.002230 -0.005386 0.004551 -0.010612 0.001033 -0.005181 0.008380 0.003100 0.001259 -0.001041 -0.007423 0.008563 0.000241 -0.000335 0.009353 0.001745 0.002640 0.007429 -0.000337 0.014402 -0.000384 0.001546 0.010198 0.005193 -0.003437 -0.005294 0.004516 -0.010901 -0.005141 0.017964 -0.001158 0.004555 0.015175 -0.004892 -0.000763 0.009317 0.011906 0.009996 -0.003120 -0.004380 -0.001473 0.015450 0.004462 0.004746 -0.017105 0.012703 0.016242 0.004244 -0.002098 0.004363 -0.006824 -0.004015 0.003602 -0.004054 0.006378 -0.000866 0.004712 0.010172 -0.001377 0.004861 -0.003629 0.011778 0.014866 -0.008185 -0.009629 -0.014153 0.022076 0.009746 0.006481 0.018830 0.009157 0.011526 0.002139 -0.006615 -0.018502 -0.003118 -0.015522 -0.004483 -0.007246 0.002220 -0.002074 0.000528 -0.000776 -0.009224 0.010133 0.005431 0.007147 -0.017569 0.000586 -0.025485 0.010590 -0.013479 -0.031485 0.033254 0.038684 0.006477 0.006586 -0.009838 -0.020203 0.029416 0.015174 -0.009238 0.005381 -0.028899 0.022540 0.002737 -0.027386 0.004531 0.003440 0.023086 0.006623 -0.038406 -0.011240 -0.003290 -0.000610 0.003613 0.045414 -0.012558 -0.011282 -0.016376 0.028643 -0.004786 -0.010078 -0.009188 -0.025610 0.000907 -0.006892 0.013441 0.018617 -0.010953 -0.021257 -0.011664 -0.011011 -0.023882 -0.003570 -0.007372 0.013427 0.020861 -0.002148 0.038452 -0.005343 0.011824 0.020330 -0.023432 -0.000528 0.004284 0.003578 -0.011902 -0.019484 0.046698 0.006987 -0.002430 0.007782 0.009453 0.005619 0.021032 0.034566 0.018389 -0.022657 0.002254 -0.002751 -0.004253 0.012979 0.000128 0.031804 0.041396 -0.012347 0.031401 0.005027 0.044281 0.046684 0.028573 0.008409 0.060861 -0.005159 -0.002919 0.003480 0.004209 0.004832 0.008703 0.008580 0.007042 0.011536 -0.009224 -0.003766 0.001237 -0.012056 0.031540 -0.014997 0.018659 0.015084 -0.017778 -0.047214 0.009299 0.000472 -0.003532 -0.005565 0.022414 -0.030768 -0.020026 -0.011630 -0.027094 -0.000412 0.007565 -0.009211 0.027910 0.010496 -0.036958 -0.005447 0.001050 0.015886 0.005922 -0.019627 -0.005622 0.007257 0.020879 -0.022461 -0.002531 0.001561 -0.004247 -0.010511 -0.008957 -0.000215 0.015047 0.037430 -0.006544 0.019849 -0.011070 -0.017658 -0.005386 -0.009329 -0.033547 0.035815 -0.008022 0.005361 -0.000957 -0.005690 0.013087 -0.007704 0.010933 -0.019943 0.004506 -0.007499 0.002716 0.010528 -0.008213 -0.003710 0.001936 -0.001924 -0.020465 -0.016116 -0.017735 0.029952 0.005673 0.018565 0.004911 0.005683 0.001149 -0.024095 -0.004166 0.008320 -0.002303 -0.005303 -0.007464 0.019119 -0.005183 -0.007226 0.004098 -0.003079 -0.001344 -0.005082 0.004718 0.009378 0.008934 -0.003280 -0.030486 -0.005413 0.027696 0.015657 0.027195 -0.010841 0.001734 -0.031493 0.011659 -0.008058 -0.020114 0.019245 0.004724 0.004613 0.007926 -0.018609 -0.020912 -0.015796 -0.000280 0.015277 -0.006328 -0.003971 -0.000415 -0.015332 -0.017065 -0.009526 -0.017835 -0.005728 0.040848 0.004258 0.004969 0.003939 0.008739 0.015270 -0.015235 0.022149 0.024746 0.009663 -0.002472 0.014743 -0.003470 -0.008095 -0.001126 0.021175 0.013239 0.007581 0.008996 0.017856 0.029030 0.003615 -0.021137 0.067004 0.023347 0.002227 0.000693 0.017777 0.037806 -0.006322 -0.027443 -0.029190 0.001116 0.034794 -0.007548 -0.012876 -0.023615 0.023831 0.029270 0.040144 -0.005988 0.030955 -0.014134 0.028986 -0.016599 -0.036872 0.009218 0.003736 0.046827 -0.040508 0.012308 -0.030429 0.009959 -0.010187 0.003105 0.021770 0.005607 -0.002176 -0.005878 0.028187 -0.010495 0.005991 -0.005524 -0.007910 -0.001029 -0.003923 -0.046642 -0.000613 0.018662 -0.029067 0.022679 -0.009595 -0.013341 -0.001524 -0.008382 0.003084 0.025397 -0.008059 0.031893 -0.033102 0.013624 0.006431 0.004712 0.025185 -0.004243 0.017634 -0.009802 0.001869 0.011808 -0.008040 -0.004152 0.012393 0.001373 -0.023684 -0.001437 -0.007165 -0.036970 -0.016557 0.007159 0.000378 -0.041700 -0.011416 0.006750 -0.018562 0.010601 -0.015282 0.030524 -0.002293 0.038851 0.022962 0.011359 -0.000437 0.002164 -0.032689 0.005718 0.000421 0.002003 0.033114 -0.003936 -0.013641 -0.004948 0.022031 0.024960 0.011647 -0.015297 -0.003420 -0.002505 0.003560 0.014147 0.030332 0.008734 -0.018010 0.016122 -0.002899 0.050255 0.004631 -0.003713 -0.035515 0.009768 0.002729 0.006623 0.031045 0.001329 -0.001851 -0.008333 0.007835 -0.004388 -0.010509 0.000128 0.009263 -0.004427 -0.002582 -0.018478 0.007107 -0.000475 0.025342 0.003703 0.013029 0.007627 0.005717 0.006365 -0.000501 -0.002535 -0.010864 0.002557 -0.003141 -0.011472 -0.002777 0.002082 0.004117 0.020684 0.005658 0.006835 0.002467 0.010405 0.001128 -0.006376 0.007664 0.001246 0.005945 0.015224 0.004792 0.001710 -0.001053 0.013497 0.001375 -0.003988 -0.006888 0.017669 0.015325 0.002565 0.004887 -0.001957 0.004442 0.000595 -0.005931 0.006845 0.005313 -0.001020 0.018246 -0.012054 -0.004203 0.012119 -0.002524 0.011777 0.003858 0.003473 0.007198 0.001794 0.009499 -0.013698 0.000731 0.002050 -0.007109 -0.004335 0.007015 0.003313 -0.008528 -0.005187 -0.000509 -0.001392 -0.005652 -0.010618 0.006336 0.009297 0.003134 -0.021318 -0.005392 -0.005582 0.009201 0.000620 -0.001362 -0.012575 0.016825 -0.001925 0.003384 0.001099 0.006336 -0.005732 0.002553 0.000676 0.003375 -0.010092 0.012782 0.006180 0.008498 0.009268 0.003790 0.001842 -0.005166 0.007958 -0.004979 -0.007346 0.018343 0.010854 0.023911 0.001377 0.015200 -0.011870 0.010661 0.002181 0.000098 -0.001847 -0.003357 0.000204 0.011064 0.004590 -0.002272 -0.008295 0.018824 0.007464 -0.013592 0.008982 0.008392 -0.002680 0.000469 0.013212 0.000760 0.003285 0.006798 -0.013395 0.001443 0.005069 -0.005924 0.004757 -0.007361 0.009608 0.006109 0.003922 0.007671 -0.003022 -0.001968 -0.004515 0.017610 0.005380 -0.004871 -0.001027 -0.011306 0.001383 -0.003287 0.006395 -0.001141 0.000081 0.003944 0.012562 0.013491 -0.000257 -0.005729 0.012867 0.003729 0.020201 0.010179 0.010096 -0.000262 0.037017 0.005282 -0.010884 0.017484 -0.003555 0.000698 -0.006511 0.011569 -0.000226 -0.004902 0.015335 0.018369 -0.003269 0.005700 -0.009024 0.002478 -0.001430 0.005004 0.000968 0.012731 -0.011850 -0.015286 0.001089 -0.002769 -0.001750 0.025981 0.002033 -0.004813 0.020988 0.003222 0.000375 -0.000743 -0.004888 -0.000694 -0.000969 0.005087 -0.027625 -0.017507 -0.003740 -0.011210 0.001224 -0.014187 0.003192 -0.001202 -0.001378 0.001503 -0.002529 0.009645 0.001236 0.005111 0.025775 0.007398 0.000706 0.009199 0.000425 -0.014796 -0.002075 -0.003896 -0.000483 -0.002219 0.001473 0.007490 0.015755 -0.002987 -0.008358 0.010174 -0.002212 0.003531 0.021575 0.004239 -0.004143 -0.004723 0.014507 0.005887 -0.001710 0.007198 0.009723 0.032520 -0.001105 0.022664 0.012763 -0.003288 -0.000752 0.018204 0.015361 -0.006357 0.015073 -0.006873 0.031331 0.003297 0.012337 0.005411 0.005530 0.011965 0.016656 -0.014940 -0.002979 0.014715 0.013842 0.027792 0.011452 0.000588 -0.000234 0.004798 0.012925 0.026590 0.006670 0.032798 0.013448 0.000705 0.009142 -0.003543 0.001997 0.004187 0.007499 -0.016756 -0.001779 0.009209 -0.001930 0.037824 0.006256 0.033868 -0.001702 0.009065 -0.007186 0.001680 0.004307 0.012044 -0.002724 0.003539 -0.034442 0.013256 0.042257 0.001744 0.023579 -0.001123 0.000752 -0.016270 -0.007628 -0.005117 -0.000366 -0.025700 0.006528 -0.007562 -0.025896 -0.057206 0.007192 -0.003302 -0.004175 0.013669 -0.016806 -0.005111 -0.040630 -0.012595 -0.007416 -0.008238 -0.003568 -0.025315 -0.005684 -0.003241 0.007025 -0.001157 0.000578 -0.003140 0.021201 0.017526 0.009824 0.006395 0.002143 0.000160 0.018684 0.014091 0.010724 -0.011828 -0.005082 -0.025730 -0.017338 0.001307 0.002108 -0.019992 -0.002559 -0.004513 0.011750 0.057944 0.000371 0.007750 0.019616 0.014683 0.015286 0.013533 0.026701 0.011440 -0.000157 0.049260 0.013231 -0.017236 -0.004818 -0.003544 0.017429 -0.013952 -0.014555 0.006875 -0.000481 0.015147 0.000009 0.007743 -0.013217 0.000310 -0.021596 0.002651 0.000187 0.013741 0.018726 -0.001459 0.027731 0.028472 -0.002412 0.000382 0.022586 -0.020719 0.034156 0.009739 -0.002236 -0.001455 0.001499 0.024025 -0.000126 0.016999 0.005238 0.022087 -0.013742 0.001870 0.000295 -0.012451 -0.002715 0.006859 -0.006028 -0.038784 -0.009942 -0.018933 0.028346 0.004082 0.038993 0.006094 0.001158 0.028788 -0.007010 0.006251 0.020934 0.010783 0.010027 -0.000111 0.010566 0.018364 -0.000561 0.013576 -0.000710 0.005763 -0.002210 0.026720 -0.002801 0.023170 -0.040302 -0.007098 -0.003772 0.023396 -0.017300 0.028828 -0.005519 0.005910 -0.018275 0.022843 -0.001633 0.000570 0.009889 -0.007615 0.010394 0.004322 -0.004967 0.014135 0.008322 -0.008800 0.006072 0.013161 -0.006694 0.019652 -0.009753 -0.020302 -0.012444 0.008909 0.000707 0.003140 -0.007192 -0.016495 -0.006087 0.005001 0.034424 -0.026537 0.021890 0.024280 -0.010565 -0.004607 0.017519 0.019617 0.009472 0.003447 0.001440 0.045285 0.005991 -0.006620 0.005672 -0.004456 -0.000433 -0.008176 -0.010782 -0.004167 0.002251 -0.007443 -0.005146 -0.000378 0.000997 0.001851 0.002821 0.004170 0.001500 0.002474 0.000113 0.011183 -0.000126 -0.001437 0.005385 0.004605 0.008653 -0.004350 -0.003881 0.000910 0.002330 -0.004753 -0.003467 -0.003251 -0.002834 -0.007479 -0.011143 -0.005645 -0.009600 -0.000179 0.004956 0.006274 0.000075 0.004585 0.005350 -0.000235 -0.000208 -0.000326 -0.000621 0.004598 -0.004688 0.002309 0.010678 0.007768 0.003659 0.002217 -0.002995 -0.004783 0.001033 0.001777 -0.001860 -0.003720 0.001654 -0.000032 -0.008482 0.000285 0.004248 -0.007385 0.000626 -0.003844 0.001332 -0.000462 -0.003429 0.000666 0.008499 0.004423 -0.001126 0.000375 0.005177 -0.004592 0.004417 0.005339 0.012304 0.001339 0.003680 0.003529 0.002658 0.003920 -0.006621 -0.000613 -0.004734 -0.003086 0.005799 -0.009250 -0.000744 0.004309 -0.008205 -0.010303 0.000111 0.001029 0.001797 0.002063 -0.002774 0.004093 -0.006635 0.000037 0.002597 0.007784 0.000989 0.004074 0.005254 -0.000622 0.006952 0.005227 0.002149 -0.008765 0.007219 0.005904 0.003405 0.004660 0.010645 -0.001495 0.003808 -0.005058 -0.002032 0.002294 -0.000633 -0.001576 0.017443 -0.006459 -0.009173 0.021460 -0.014729 0.019721 -0.005476 0.005333 0.006866 -0.005014 0.002122 -0.013587 0.053087 0.029114 -0.020520 -0.026889 -0.002220 0.003209 -0.001491 -0.005215 -0.014732 -0.008150 0.007101 0.014127 0.003445 -0.001030 0.016228 0.041883 -0.013631 0.000638 -0.011508 0.012088 0.008496 0.029367 0.016090 -0.011114 0.003267 0.046612 -0.014085 0.000136 -0.021027 0.005328 -0.007802 0.021989 -0.011210 0.014399 -0.002813 0.016719 -0.037472 0.010417 0.033043 -0.014970 0.004464 0.001244 0.024417 0.011333 0.024546 0.015783 0.008040 0.000972 -0.001916 0.037433 -0.000821 0.017237 0.009742 -0.010921 0.029829 0.012305 -0.020363 -0.010980 -0.020536 0.054620 0.020811 -0.004716 -0.030645 0.001487 0.000361 -0.007276 0.032230 -0.024006 0.005609 0.009372 -0.004511 -0.000507 -0.006684 -0.006308 0.005579 0.024107 0.038438 0.007461 0.018708 -0.002675 0.000842 0.025747 0.001740 0.007916 0.004008 0.022947 0.005228 -0.054561 0.003135 -0.008922 0.001055 -0.007897 0.027251 -0.018750 -0.010825 -0.032602 -0.031341 -0.043666 -0.022052 -0.000176 -0.004751 0.006954 0.003200 0.046229 -0.006782 -0.001078 -0.021580 -0.024216 0.001738 -0.000997 -0.004955 -0.000651 0.003496 0.010755 0.004988 0.007629 0.002093 -0.011375 0.005781 -0.009018 -0.006795 0.011737 -0.002207 0.009374 0.014606 -0.001535 -0.005913 -0.000779 -0.020165 0.000949 -0.009852 -0.008526 -0.013586 0.008822 -0.003343 0.000524 0.016621 0.002565 0.006759 0.002919 0.004814 -0.006184 -0.013720 0.006327 0.004925 -0.005496 -0.007504 0.006190 0.008975 0.003876 0.018447 -0.005515 0.005484 0.005193 0.018884 0.017254 0.005467 -0.004969 0.000747 0.011220 -0.003121 -0.001200 0.010737 0.002356 0.006402 0.007189 -0.002092 -0.001930 0.027191 0.001945 0.003209 0.000468 0.000030 0.000596 0.003682 0.012782 -0.009370 0.001736 0.006516 0.005708 0.006422 0.014053 0.007138 0.016428 0.007105 0.004058 -0.003966 -0.002754 0.011216 0.005309 0.014854 0.010275 -0.006624 -0.004222 -0.001828 0.007306 -0.003327 0.005375 -0.001627 -0.003368 0.015691 -0.002011 -0.001262 0.001101 0.007636 0.003245 0.001371 -0.005283 -0.009764 0.018818 0.009315 0.003259 -0.002150 0.007932 0.011940 -0.012350 0.000946 0.006561 0.001062 0.003816 0.003416 0.003146 -0.000064 -0.004117 -0.002044 0.017467 -0.007100 0.019016 -0.004854 0.004422 0.006562 0.030234 0.041324 -0.005597 0.002946 0.000369 0.026677 0.014067 -0.008430 -0.025147 0.001211 0.026442 -0.005500 -0.018705 -0.013648 0.032870 0.037047 0.020548 -0.004447 0.010138 0.002645 0.024630 -0.004424 -0.029374 0.003103 0.010481 0.037422 -0.017591 0.022673 -0.028921 0.013545 -0.010914 0.018713 0.018869 0.017618 0.000209 -0.007217 0.008760 0.013951 -0.002556 0.014596 0.013567 0.008933 -0.007183 -0.027943 -0.011593 0.018596 -0.022484 0.021477 -0.008380 -0.022838 -0.007092 -0.009956 -0.020774 0.009508 0.008157 0.008042 -0.035776 0.020673 0.009397 -0.001676 -0.011290 0.003709 0.018958 -0.015111 0.005641 0.007386 -0.019659 0.002182 0.021378 0.024895 -0.031574 0.003368 0.015034 0.021646 -0.017676 -0.000902 0.006199 -0.029676 -0.015701 0.002656 -0.014692 0.030371 -0.017137 0.020885 0.013850 0.036648 0.036385 0.014651 0.003535 -0.018359 0.010929 -0.010060 -0.028098 -0.007762 0.050361 0.003515 -0.013423 0.002259 0.011640 -0.000119 0.011045 -0.002336 0.010312 -0.001463 0.037048 -0.006430 0.023505 0.017171 0.004868 0.015406 0.001934 0.069185 0.007213 0.013699 -0.034169 -0.006084 0.000443 0.004969 0.026543 0.005371 0.005487 0.005552 -0.001297 -0.004498 -0.007050 0.004688 -0.003604 -0.000307 -0.000964 0.001388 -0.001222 -0.006758 -0.005479 0.002047 -0.001103 -0.000059 -0.004900 -0.004608 -0.000079 -0.004827 -0.002892 -0.007363 0.002367 0.003719 0.003437 -0.000617 -0.002921 -0.011621 -0.000407 -0.002859 0.017263 -0.000835 0.002854 0.007070 0.006499 0.006601 0.001340 -0.004918 -0.004209 -0.002789 0.005727 -0.000625 0.011755 -0.000748 -0.000295 0.004550 -0.001779 -0.002705 0.003816 0.001795 -0.002504 -0.001639 0.010487 -0.002341 -0.001645 0.002477 0.000693 -0.004210 -0.012156 0.000690 -0.001946 0.000577 0.009155 -0.007568 -0.008686 0.004412 -0.005875 -0.005624 -0.004407 -0.001983 0.005299 0.003747 -0.003678 -0.006996 -0.001177 0.000713 -0.007647 -0.002120 -0.000761 -0.002821 0.007560 0.005213 -0.003474 -0.005030 -0.010679 -0.001335 -0.012035 -0.002674 0.005259 0.002771 -0.004851 0.002313 0.007261 0.002920 -0.004848 -0.000340 0.001941 -0.000776 -0.005234 -0.006587 -0.005043 -0.003847 -0.002489 -0.013786 -0.010106 -0.002203 0.003406 0.005788 -0.004335 0.000920 -0.003418 0.003334 0.003162 0.001067 -0.004084 0.004158 0.002176 0.001459 -0.003055 0.007020 -0.001056 -0.004318 -0.001981 0.009908 -0.003080 0.018595 -0.008346 -0.012712 0.003758 0.008721 0.000822 0.000984 0.023034 -0.019712 -0.006622 0.021026 -0.020264 0.014365 -0.001068 0.002258 0.004922 -0.011712 0.002597 -0.003268 -0.002681 0.021906 -0.002474 0.009017 -0.004269 -0.024843 0.021353 -0.002523 -0.011124 -0.009988 0.006822 -0.009753 -0.003417 -0.007711 -0.001503 0.008220 -0.001738 0.014996 -0.023476 -0.006739 -0.012200 0.035733 0.026984 0.001269 0.007143 0.008942 -0.008232 -0.015701 0.005544 0.002829 0.015131 -0.004151 0.002233 0.001932 0.022865 -0.000467 0.017437 0.013790 -0.017760 -0.012377 -0.016085 -0.003252 -0.005513 0.008683 -0.002460 0.031525 0.013920 0.020779 0.005322 0.005036 0.012917 0.009316 0.008945 -0.003129 -0.002898 0.011246 0.024035 -0.001290 0.020934 -0.007690 0.012241 0.021072 -0.000676 0.001539 -0.003833 -0.021307 -0.010923 0.025077 -0.004844 -0.000726 0.003037 -0.001298 -0.005665 0.003570 0.012893 0.000606 0.043581 0.034018 -0.010406 0.006162 0.002730 0.006359 -0.000613 0.012892 0.035945 0.001117 0.005830 -0.000229 -0.014269 -0.035221 0.011257 -0.012371 -0.025767 0.028433 -0.000607 0.005411 0.002290 -0.005450 0.010207 0.022839 0.017631 -0.008299 -0.009620 0.012959 0.012867 0.001567 0.010309 0.009033 -0.012121 0.006013 -0.016877 0.009907 -0.027642 0.006715 -0.008336 0.022548 0.001216 0.017646 0.032012 0.022411 0.019691 0.032271 -0.000777 -0.001457 0.033702 -0.003430 0.026584 -0.003302 0.006845 0.002328 0.015783 0.021142 0.019991 0.006746 0.037708 0.000837 0.001281 -0.005394 -0.003201 0.009348 -0.005962 0.003447 -0.018517 -0.023670 -0.012193 -0.002185 0.037921 0.010452 0.032845 0.009489 -0.000197 -0.020362 0.004331 0.007750 -0.007542 0.003495 0.013379 -0.035003 0.019381 0.045614 0.000522 0.026623 0.002350 0.005707 -0.022139 0.014042 -0.019240 0.001633 0.009385 -0.006916 0.004492 -0.006297 -0.007583 0.031429 0.001792 -0.004218 0.007237 -0.001272 0.006784 -0.025549 -0.018891 0.005319 0.000246 0.008092 -0.011834 0.012128 -0.007194 0.008861 -0.019918 -0.006952 -0.002713 0.004583 0.005995 0.031586 -0.003512 0.000441 0.000395 0.003333 0.003215 0.007242 -0.017392 -0.009662 0.007899 0.006685 0.015485 0.014154 0.007639 0.026289 -0.006060 0.006563 0.025864 -0.006126 -0.003574 0.041415 -0.027658 0.003367 0.004077 0.011722 0.008015 -0.019980 0.007574 -0.005181 -0.006320 0.008565 -0.000271 -0.001216 -0.007293 0.000888 0.018422 0.000037 -0.004269 -0.003439 0.007229 0.008933 -0.003597 -0.031285 -0.005424 -0.002929 -0.009389 0.016376 -0.000236 0.010828 0.021739 0.012622 -0.004204 0.011353 -0.012949 0.012359 0.033222 0.000923 -0.001065 -0.008719 -0.013307 0.004820 -0.001135 0.012151 -0.004728 0.004006 -0.004499 0.003979 -0.006520 0.000065 -0.000466 0.037899 0.006935 0.011284 -0.005271 0.013010 0.000518 0.030695 0.000014 0.003437 0.024222 -0.007455 -0.006289 0.000464 0.033791 -0.015214 -0.000406 0.023694 0.028229 0.007675 0.015827 -0.002473 -0.001384 -0.002480 0.010995 0.002400 -0.006724 0.000937 -0.003105 -0.007710 0.003777 -0.017948 0.029967 -0.001871 0.006849 0.014730 0.027221 0.002807 0.010241 -0.007955 0.007172 0.001442 -0.002891 -0.030248 -0.031672 -0.022165 -0.011676 0.015404 -0.008305 0.009550 0.029941 -0.005124 0.005430 -0.002653 -0.000256 -0.009564 0.020154 0.034055 -0.004804 -0.006996 0.002978 0.002944 -0.015403 0.010016 0.015474 -0.007886 -0.000593 -0.008491 0.004788 -0.006005 -0.006486 -0.013683 0.016858 0.014634 -0.002696 0.039940 0.004437 0.011979 0.006908 -0.017537 0.012342 0.004131 0.009364 0.006769 -0.022236 0.020414 0.013389 -0.020742 0.014538 0.000395 0.032065 0.002282 0.013242 0.010090 0.032531 -0.002317 -0.002003 -0.028867 -0.029347 -0.001234 -0.019412 -0.018779 0.007707 0.003222 0.011324 0.056815 -0.026731 0.009145 0.006755 0.003177 0.011868 0.017044 0.004046 -0.004864 -0.008697 0.030577 0.009041 -0.001496 -0.007220 0.018474 0.000017 -0.013969 0.018300 0.031960 0.019203 0.011592 -0.019092 -0.003397 -0.001391 0.014804 0.004563 -0.012250 0.000210 -0.003866 0.031504 -0.007461 0.008790 0.023951 0.004593 0.005586 -0.005885 0.004786 -0.002021 0.003454 0.033803 -0.019887 0.008260 0.004085 0.006770 0.002619 0.031512 0.013545 0.033576 -0.018659 0.010899 0.000485 0.007174 -0.003172 -0.006458 0.041247 0.031144 -0.033097 -0.007988 0.006363 0.036741 0.011004 0.017673 0.004230 0.023712 0.019065 0.002065 -0.021694 0.010581 0.001995 -0.010241 0.008213 0.014018 -0.011183 -0.005321 0.003006 0.010997 0.007906 -0.003868 0.028781 -0.010095 -0.015609 -0.010317 -0.016672 0.009952 0.008712 0.026792 0.005226 0.025050 -0.022530 -0.018924 0.002245 -0.013244 0.004365 0.000774 0.014893 0.002819 0.013556 0.004995 -0.013450 0.002710 0.014804 0.004009 0.001330 -0.004394 0.003772 0.008464 0.014574 0.014570 -0.001492 0.009066 -0.005194 0.015222 0.000535 0.001427 0.009515 0.016539 0.006066 0.003770 -0.007405 -0.000270 0.010225 0.025918 0.030826 -0.022921 -0.000780 -0.004616 0.021354 0.037668 0.010751 -0.002396 0.015246 0.004815 -0.000017 0.000830 0.012920 0.020057 0.004981 0.010282 -0.041810 -0.013767 0.006575 -0.001791 0.020918 -0.009916 0.022781 0.000484 -0.004800 -0.021869 0.021017 0.001397 0.001381 -0.036161 0.015444 -0.034657 0.007879 0.029229 -0.000899 0.029453 0.004816 -0.000506 -0.015220 -0.019973 -0.027517 -0.016523 -0.023198 0.001789 -0.013028 -0.002454 -0.039354 0.000713 -0.003584 -0.004480 -0.021983 -0.040884 0.002221 -0.038006 -0.003555 -0.013631 -0.016751 -0.002208 0.003253 0.007809 0.031126 0.007295 -0.013534 0.016571 -0.003762 0.004844 -0.003810 0.028410 -0.001331 -0.007412 0.001861 -0.017687 -0.017367 0.009744 -0.008005 -0.010553 -0.014131 0.013157 -0.013823 -0.024798 0.000475 -0.002266 0.004846 0.006060 0.058878 0.002367 0.017393 0.013560 -0.016528 -0.005289 -0.018268 0.011124 -0.002996 -0.005026 0.017766 0.022129 -0.018194 -0.002774 -0.004087 0.016696 0.004554 -0.019761 -0.026389 0.011764 0.030168 -0.014960 -0.003786 -0.016024 0.008386 0.007826 0.021663 0.001757 0.028640 0.016570 0.013764 0.007149 -0.010916 -0.024480 -0.000390 -0.000788 -0.009899 0.027883 -0.018051 0.012593 -0.006470 0.020004 0.018960 -0.008003 0.008605 -0.005319 0.005052 -0.005581 0.005736 -0.000060 -0.018172 0.007488 -0.011952 -0.029059 -0.040562 -0.030903 -0.030140 0.026140 -0.005830 0.008826 0.017962 -0.004368 -0.013066 -0.010741 0.001121 0.012852 -0.008916 -0.003452 -0.016749 -0.004063 0.007992 -0.004463 0.012269 -0.008692 0.007411 0.002241 -0.008139 -0.013165 -0.000648 -0.000934 -0.038473 -0.004400 0.015758 0.011519 -0.009279 0.003664 -0.001610 -0.039593 -0.009352 -0.002124 -0.009447 0.026136 -0.004500 0.012530 0.002307 0.022219 0.019969 0.007058 0.005060 0.010075 -0.008961 0.005512 -0.007941 -0.010840 0.006700 -0.001030 -0.028069 0.000730 0.012824 -0.032631 0.001802 -0.010131 -0.000810 -0.001335 0.000572 0.021197 0.013950 -0.009888 -0.007123 0.006841 0.003873 0.012831 0.003254 0.032563 0.003315 -0.019361 -0.006978 -0.018402 0.013973 -0.007227 -0.010009 -0.015858 0.011207 -0.004082 0.002342 -0.014827 -0.048720 0.018653 0.003587 0.002057 0.005585 0.032714 -0.032849 0.014369 0.012366 -0.016104 0.035624 -0.013368 -0.001053 0.006228 -0.015279 0.026541 -0.005096 0.002054 0.008960 -0.006430 0.025379 -0.010002 -0.044033 -0.037292 0.001669 -0.002059 -0.001410 0.025133 -0.024958 -0.004131 -0.039088 0.008818 -0.000812 0.009651 -0.012820 -0.048413 0.013039 -0.015421 0.051337 0.009176 -0.029171 0.011916 -0.018414 -0.000850 -0.017898 -0.009682 0.003964 -0.003905 0.021254 -0.009482 0.006879 0.038209 0.013878 0.029405 0.002334 -0.024181 -0.006042 -0.015077 0.014191 -0.013544 0.040979 0.027483 0.017916 0.017722 0.034769 0.026100 0.008519 0.045162 0.032981 -0.001967 0.003726 0.000887 0.017924 0.035347 0.005366 0.043622 0.006847 0.021954 0.043846 -0.002999 0.040898 0.048866 0.018775 0.007196 0.042062 0.014120 0.005593 0.002470 -0.010159 0.009310 0.005116 0.016627 -0.001476 0.005720 0.003643 -0.005013 0.013101 -0.031643 0.040972 -0.001398 0.033615 0.025135 0.009274 -0.006533 -0.005754 -0.019002 -0.033003 0.000647 -0.002729 -0.026643 -0.008324 -0.005652 -0.017332 0.007172 0.004498 0.007205 0.001147 0.001519 0.008685 0.001560 0.001907 0.002467 0.002908 0.000437 -0.002294 0.009469 -0.007717 0.006501 -0.000312 0.002997 0.003952 -0.003086 -0.000509 0.001417 0.002990 -0.002120 -0.008265 -0.012017 -0.008948 0.000082 0.001447 -0.008452 -0.000996 -0.009755 0.003328 -0.012692 0.003427 -0.008641 -0.008486 -0.006792 -0.001768 -0.000259 0.006719 -0.001846 -0.006349 0.001283 0.004785 0.005369 0.007837 -0.006909 -0.003162 -0.009717 -0.000362 -0.003584 -0.009172 -0.007171 -0.002307 0.002839 -0.005509 -0.007200 0.002439 -0.001414 -0.000595 0.003887 0.002520 0.003010 0.015641 0.001178 0.001980 -0.011185 0.000712 0.001128 0.005743 0.003025 0.001420 0.013608 0.000640 0.007130 0.004214 -0.007360 0.001937 0.002920 0.003335 -0.006480 -0.000154 -0.005491 0.005535 0.002292 -0.000551 0.001494 0.001499 0.004985 -0.001917 -0.008250 -0.000887 -0.005614 0.001742 -0.002298 0.004714 0.005606 -0.005661 0.003912 -0.000641 0.005490 -0.001029 0.004400 -0.003487 -0.003097 0.007921 -0.002618 0.010638 0.004820 0.002961 0.000426 0.010717 0.003571 -0.006116 -0.000018 -0.001849 -0.008627 0.006097 -0.000901 -0.005277 -0.007361 -0.008542 -0.002541 0.014517 0.021495 0.018132 0.014487 -0.001530 0.003113 -0.024031 0.012608 0.007357 -0.007374 0.006596 0.017067 -0.006616 -0.000380 -0.025067 -0.002329 0.026478 -0.004896 -0.002878 0.014136 0.008206 0.033003 0.013536 0.013678 0.001070 0.003173 0.025224 0.003727 -0.008561 0.013580 0.006076 0.000112 0.005662 0.039418 -0.001689 -0.002544 0.003201 -0.009733 -0.010875 0.000302 0.002304 -0.011449 -0.004060 -0.016183 0.004681 -0.025038 -0.038041 0.001927 -0.004820 0.007369 -0.010616 0.008427 0.006850 -0.000728 -0.006328 0.006726 -0.007446 -0.006295 0.012960 0.000470 -0.004534 -0.005146 -0.000317 0.005893 -0.000347 -0.013696 0.010315 0.010276 0.003924 0.020913 0.026838 0.004955 -0.003991 0.023060 0.044130 -0.015520 -0.001765 0.007552 0.000984 0.015369 -0.004515 0.005906 0.038268 0.000048 0.012334 0.004224 0.010581 0.047449 0.015994 0.025068 0.000025 0.011888 0.000735 -0.022948 0.005850 0.011378 -0.005974 0.005321 0.002496 -0.017995 -0.032212 -0.002283 0.014062 -0.013603 0.028279 0.002644 0.020149 0.006451 -0.003376 -0.003179 0.010796 0.000547 0.005970 0.013531 0.020522 0.010266 -0.033533 -0.005708 -0.028821 0.000442 -0.005784 -0.017077 0.040341 -0.010123 -0.008827 0.012126 0.015878 0.042416 -0.012639 0.014060 0.021324 0.000505 -0.005379 0.037154 -0.003567 0.008753 -0.004769 -0.035810 0.016469 -0.001418 0.014612 0.006743 -0.013649 -0.000027 0.016083 -0.003891 -0.008636 -0.003423 -0.012892 0.005511 0.066000 -0.008178 0.001523 -0.005208 -0.030900 0.003752 0.003231 0.024659 0.002151 -0.003422 0.002100 0.007434 0.005027 0.003586 0.004660 0.018413 0.023553 0.037298 0.003323 0.035482 0.001455 0.053154 0.005146 0.005542 0.032188 -0.010190 -0.002583 0.031796 0.017454 -0.011464 -0.011248 0.017432 0.035429 0.000265 0.007781 -0.006810 -0.010498 -0.006604 -0.006625 0.013954 0.002444 -0.034833 -0.022826 -0.003127 -0.009043 -0.048805 0.025297 0.001570 0.005348 0.022040 0.017172 -0.002801 -0.020476 -0.011504 -0.002206 -0.015592 -0.004135 -0.045483 -0.054409 -0.012402 -0.019438 -0.010465 -0.021071 0.001096 0.025082 0.011072 -0.014573 -0.003814 0.014767 -0.012072 0.026367 0.042302 -0.007282 -0.003554 0.028429 -0.011246 -0.016222 0.002560 0.021151 -0.015158 0.000720 0.011707 0.024465 0.021422 -0.003819 -0.003565 0.017989 0.045801 0.002877 0.043733 0.005117 0.007301 -0.025417 0.000257 0.003266 -0.026394 0.010354 -0.005464 0.001895 -0.004004 -0.002849 0.008237 0.003534 0.017643 -0.011959 -0.002543 0.008871 -0.005880 -0.014646 0.011731 -0.004333 -0.000840 0.008148 -0.001152 -0.004215 0.005164 0.005776 -0.000256 0.011621 -0.016650 0.004769 0.009322 -0.003056 0.006976 -0.013715 -0.012919 -0.003979 -0.002793 -0.010886 -0.004835 0.002278 -0.007389 0.007148 -0.005132 0.008531 -0.001595 0.016087 0.004887 0.019801 0.001893 0.009301 0.001140 0.013283 -0.006299 -0.007199 0.007329 -0.011333 0.004860 0.003506 0.017935 -0.006190 0.011384 0.012224 0.006594 0.001183 0.001546 -0.005152 0.000718 -0.007781 0.002625 -0.001527 -0.000141 -0.000265 -0.008165 -0.002973 0.005718 0.004822 0.011194 0.003223 0.000167 0.007880 0.020112 -0.007180 0.014522 0.003588 0.011583 0.007474 -0.005890 -0.012647 -0.025378 -0.016180 -0.014924 0.000228 -0.003255 0.005273 -0.007277 0.001882 -0.001685 0.005290 -0.007187 -0.007731 0.034969 0.028782 0.001903 -0.003307 0.010779 0.000229 -0.002557 0.004927 0.028090 0.002853 0.009747 0.002296 -0.004058 -0.003019 0.000487 -0.004832 -0.005304 0.017584 0.002795 0.031826 0.023307 -0.006421 0.009829 0.011028 0.008607 0.002521 -0.005206 0.018511 -0.001921 -0.006062 -0.014820 0.020977 -0.008710 -0.007362 -0.024078 0.006986 -0.010327 0.000388 -0.002029 -0.009062 0.005533 -0.015029 0.042279 0.008729 0.036187 0.008030 -0.008064 -0.002462 -0.005320 -0.009133 0.017296 -0.000240 -0.001707 0.001248 0.005353 0.013220 0.005872 -0.015867 -0.015348 -0.006246 -0.002561 0.005714 -0.002488 0.009610 0.002071 0.004543 0.021918 -0.002547 -0.029704 0.006602 -0.014200 0.000015 0.035015 0.009532 0.002927 -0.008738 -0.014668 0.003909 -0.023285 0.019116 0.015572 0.005574 0.021275 0.021814 0.002364 0.015156 -0.007602 -0.006880 -0.000301 0.013817 -0.017278 -0.002925 0.033851 -0.001055 -0.004643 0.003395 0.064719 0.041098 0.008068 -0.006900 0.024694 0.009378 0.005415 0.016198 0.014143 0.039044 0.001584 0.014866 -0.016274 0.018479 0.011190 0.008277 -0.010584 -0.013385 -0.000489 0.003059 -0.012362 0.015097 -0.004560 0.008096 0.004977 0.008783 0.014414 -0.000334 0.019871 -0.002830 0.036997 0.021234 0.011099 0.004833 0.005400 0.024892 -0.007188 -0.001358 -0.020448 -0.000738 0.012620 0.029000 -0.020876 0.006885 0.015983 0.001581 0.006239 -0.012573 0.023471 0.031174 0.000981 0.010770 0.013874 0.003589 0.002562 -0.007614 -0.017807 0.012424 0.022119 -0.018655 -0.012882 -0.017085 0.020048 0.029912 0.037949 -0.003356 0.017280 -0.020573 0.033789 -0.023397 -0.047430 0.016942 -0.005028 0.042774 -0.034930 -0.024721 -0.029122 0.006162 -0.000083 0.006053 0.021758 -0.001406 -0.006473 0.004059 0.003479 0.007192 0.004945 0.001553 -0.000389 -0.002787 -0.018938 -0.010443 0.025018 0.021171 -0.017995 0.016548 0.001949 -0.015704 -0.000902 0.003130 -0.013623 0.020596 0.005697 0.010211 -0.014948 0.027237 0.011633 0.000670 0.002730 -0.004414 0.018109 -0.014354 -0.005406 0.018081 -0.019846 -0.003726 0.001626 0.039217 -0.024286 -0.005056 -0.011332 0.013111 -0.025430 -0.000302 -0.010327 -0.005217 -0.008202 -0.002062 -0.004616 0.005466 0.003831 0.028281 0.003481 0.033985 0.023561 0.013253 0.008883 -0.000013 -0.034171 -0.001216 -0.009587 -0.009390 0.046814 -0.007540 -0.015492 -0.003635 0.032778 0.044320 0.003873 -0.008327 -0.009811 -0.020146 0.022720 0.008171 0.021840 0.011717 -0.006613 0.003435 -0.019718 0.024127 0.000319 0.019994 -0.054525 -0.003513 0.008230 0.024680 0.043378 -0.003802 0.003502 0.023421 -0.004824 0.015472 -0.018481 0.010819 -0.009476 -0.006909 -0.021767 -0.002884 0.002566 0.011359 -0.002009 0.028586 -0.014048 -0.022330 -0.009681 -0.002125 -0.002543 0.006095 -0.001101 0.005446 0.015703 0.024224 -0.009748 0.004184 0.018733 -0.007723 -0.006216 -0.013300 -0.005580 0.008050 -0.003331 0.020694 -0.008345 -0.009011 -0.005461 0.008857 -0.011757 -0.000280 -0.002367 -0.016586 -0.004658 -0.002348 0.004689 -0.015757 -0.012042 0.003645 -0.010324 0.006929 0.023916 0.011958 0.001534 0.009645 0.030408 0.000098 0.032765 0.031192 0.014491 0.010638 0.008919 0.028670 -0.012908 0.013217 0.002020 -0.005319 0.022957 0.024359 -0.029151 0.001975 -0.001128 0.017615 0.003374 0.009438 -0.005543 0.011828 0.003834 -0.003837 0.013364 0.012686 0.013728 0.005149 0.003517 0.015124 0.022075 0.012243 0.004196 0.018888 0.028941 -0.008196 0.027468 -0.031297 0.000736 0.022760 -0.003031 0.006309 0.012620 0.015574 -0.004619 -0.028507 0.006848 -0.012921 0.005133 -0.011441 0.024149 -0.016888 0.021837 -0.008010 -0.010691 -0.029749 -0.011988 -0.002530 -0.002747 0.000761 0.010294 0.016837 -0.007982 -0.005676 -0.018030 -0.009968 -0.002616 0.006615 -0.028019 0.008318 0.004629 0.022850 0.005523 -0.002184 -0.003284 0.040592 0.000419 -0.003948 -0.008409 0.058074 -0.010655 0.027223 -0.000293 -0.005597 0.010160 0.005756 0.005893 -0.009318 -0.012963 -0.023988 0.002800 0.020376 -0.006517 0.008907 0.039305 -0.000357 0.020799 -0.001338 0.007373 -0.003511 -0.020949 0.016084 0.002380 0.014513 0.035150 0.016573 0.001909 -0.003974 0.011852 -0.003989 0.012563 0.005434 0.044755 0.042375 0.016002 0.004283 0.005470 -0.007393 0.007470 0.005684 0.005940 0.003207 -0.008323 0.023915 -0.000283 -0.005630 0.013306 -0.002864 -0.001097 0.001587 -0.002433 0.014577 0.005326 0.011785 -0.004350 0.025517 0.007956 -0.020395 0.028844 0.014398 0.006393 -0.026206 -0.007045 0.006875 0.011256 0.011782 0.012903 0.003072 0.016540 -0.020501 -0.010746 -0.022393 -0.012636 0.010015 -0.021833 -0.014617 -0.002920 0.025641 0.012774 0.001536 0.027232 0.001800 -0.008312 0.011170 0.022598 0.002772 -0.010663 0.016200 0.008010 0.002972 0.021341 -0.007052 0.007710 -0.016681 -0.002465 0.009154 0.010214 -0.009325 0.000642 -0.003750 -0.008463 -0.023935 -0.013467 0.050135 -0.000692 0.003822 -0.004298 0.000552 -0.009417 -0.006721 -0.008683 -0.006293 0.002508 0.003990 0.002518 0.008329 0.024128 0.013823 0.013554 -0.007241 0.009915 -0.003347 0.008822 -0.009514 -0.005915 0.000572 -0.000144 -0.015197 -0.003706 -0.007223 0.003743 0.011246 0.002320 -0.006701 -0.026786 0.015994 0.006051 0.032630 0.004829 -0.009332 0.008507 0.005435 -0.002569 -0.004261 0.003519 -0.000108 -0.000737 -0.006380 0.001326 -0.002231 0.002376 -0.002011 0.012502 0.006905 0.009089 0.009368 0.011620 0.001286 0.017753 0.003525 -0.003425 -0.001122 -0.022455 -0.000438 -0.000876 0.001522 -0.004413 -0.000111 -0.004171 0.003693 0.001714 -0.000703 0.001221 0.001385 0.007753 0.004213 0.002710 -0.010482 -0.003946 0.014189 0.007483 0.008089 0.003587 -0.004967 -0.001201 0.004493 0.011795 0.009206 -0.002699 0.011928 0.007662 -0.000906 0.002513 -0.003758 -0.009376 -0.010461 -0.007856 0.002857 0.015317 0.007083 0.003225 0.000585 0.005610 -0.009203 0.008268 -0.004799 0.003438 0.019161 0.008356 0.002476 0.006909 0.002734 -0.004071 -0.008195 -0.001591 -0.001655 -0.006219 -0.012261 0.000089 0.013795 -0.006428 0.009352 -0.000061 -0.002658 0.005290 -0.008164 0.000942 0.000560 0.002222 0.087949 0.014138 -0.031931 0.015380 0.061959 -0.069335 0.010179 0.019749 -0.008063 -0.081660 -0.035318 0.006901 0.049226 0.006335 -0.013695 -0.001626 -0.015619 -0.038146 -0.044462 0.012168 -0.032696 0.009105 0.005797 -0.048428 0.029731 0.109379 -0.039278 0.004070 -0.023818 -0.023951 -0.005658 0.088148 0.089757 -0.051110 0.006236 0.001590 0.025512 -0.005404 0.030223 -0.034926 -0.006146 0.027444 -0.009869 -0.007074 0.092422 0.049973 -0.002273 0.015676 -0.001941 -0.007487 -0.024951 -0.031697 0.075687 0.018120 0.012380 -0.045006 0.110080 -0.040642 -0.088703 0.043872 0.006484 -0.030137 -0.018189 0.003549 0.125057 0.038258 -0.030897 0.010952 0.023422 -0.037488 -0.008717 0.160042 -0.015544 -0.003192 0.076521 0.003697 0.033134 0.019978 -0.012501 0.012309 -0.031956 0.036392 0.077523 0.041665 0.004233 -0.014332 0.099750 0.083528 0.046750 0.017317 0.019882 -0.011332 0.008515 -0.001154 0.062550 0.006500 -0.001960 -0.007586 0.015097 0.004172 0.005689 0.125821 0.056043 0.028610 -0.014774 0.068561 0.000781 -0.012324 0.107850 -0.006610 -0.067167 -0.010924 -0.009069 0.033931 0.011492 0.003159 0.017924 0.008097 0.049634 -0.005200 0.004116 0.098914 0.130791 -0.094948 0.067530 0.045641 -0.008360 -0.001653 0.000166 -0.057103 -0.042695 0.010582 0.008631 0.006872 -0.002980 0.047588 0.032618 -0.002921 -0.030308 0.052955 0.030522 -0.064457 0.071702 0.028586 -0.014607 0.038457 0.017150 -0.023911 0.003111 -0.075032 0.026513 0.068260 0.003322 0.021855 0.043503 0.050363 -0.019028 -0.022104 0.026051 -0.010818 -0.013201 0.000962 0.018933 0.046170 0.113403 0.059693 -0.031001 -0.037196 0.008085 0.047102 0.080526 -0.000340 0.038144 -0.060027 0.034076 0.028433 -0.001963 -0.040318 0.000574 -0.040082 0.096351 -0.020309 0.043471 0.000765 0.009487 0.007276 0.153353 -0.029304 -0.046424 -0.024973 0.106975 0.009572 0.014334 -0.053227 0.041764 0.062219 -0.030105 0.002286 -0.019682 -0.005689 0.009930 -0.063808 -0.003892 -0.068399 -0.005037 0.006767 0.028446 0.054517 -0.010222 -0.098081 0.055328 0.038359 0.001145 0.002240 0.091705 0.035669 -0.000100 0.007059 -0.000783 0.004129 0.014475 0.108674 0.006424 -0.009248 0.003668 0.034658 0.074171 -0.014902 0.108572 0.026911 0.001586 -0.016173 0.012087 -0.005647 0.008354 0.033573 0.099960 -0.006293 0.063406 -0.060425 -0.009003 0.058375 0.002992 -0.039733 0.082438 0.011116 0.005783 0.002606 0.040340 -0.044914 0.112026 0.012828 0.054160 -0.020153 -0.000643 -0.022426 -0.056546 -0.027840 -0.055004 0.029734 0.111704 0.114409 -0.051243 0.003049 0.091938 -0.006118 0.004980 -0.007121 -0.006433 -0.010327 0.000193 0.046508 0.002825 -0.068939 -0.003693 0.016460 0.003449 0.002706 0.037520 0.001523 0.018164 0.057867 0.002959 -0.003216 0.007887 0.008339 -0.011698 -0.033860 0.075392 0.014301 0.009823 -0.071146 -0.039093 0.008603 0.087687 -0.042210 -0.041793 0.005145 -0.010434 0.036584 0.027271 -0.005627 -0.005245 0.004659 0.008246 0.090940 0.027371 0.017231 0.045122 0.019014 0.012412 0.128344 0.065209 0.159367 0.023479 -0.004040 0.052877 0.031558 0.013093 -0.051165 -0.033758 0.137168 -0.000547 -0.001959 0.051863 -0.050840 0.029376 0.063113 0.112773 0.047083 -0.008921 0.066659 -0.057732 -0.000685 -0.028114 0.127776 0.016927 -0.066665 0.001111 0.007607 -0.011195 0.009175 0.064497 0.101443 0.003470 0.144721 -0.004659 0.058741 0.010210 0.112416 0.056585 -0.003115 0.046966 0.003575 -0.011015 0.006732 -0.004282 0.069871 0.053326 0.000103 -0.100404 -0.002997 0.004682 0.042343 -0.045740 0.044641 0.007056 0.017936 0.137217 0.028732 -0.000329 -0.008966 0.002913 0.029144 -0.003847 0.003321 0.040674 -0.016653 -0.034521 -0.002230 0.027063 0.051447 0.006799 0.009659 -0.072398 0.042106 0.008969 0.008919 -0.003923 0.004172 0.070031 0.080208 -0.068054 -0.040411 0.039992 0.008182 -0.033513 0.035526 0.026973 0.018070 0.025331 0.086499 0.045163 0.009821 0.008364 -0.010615 -0.082964 0.006758 0.055957 0.034427 0.081231 -0.063864 -0.031398 -0.014448 -0.031205 0.001542 -0.070270 0.173056 0.069594 -0.028737 0.013119 0.004290 0.095314 0.031190 0.005328 0.051576 0.017263 -0.029205 